9996 16
. -0.022778304 0.06742583 0.011065533 -0.040589157 -0.0245929 0.0038216428 0.03208237 0.015095427 -0.062640965 0.017232316 -0.047736917 -0.06863412 0.056223515 0.0011543601 0.02422487 0.094547234
영화 -0.0059789754 0.0063954396 0.033328414 0.028827038 -0.02430074 0.08412656 0.023580564 -0.072742835 -0.06256046 -0.073391445 0.0033492278 -0.03000973 -0.012901039 -0.008678281 -0.037922632 -0.0050252615
다 -0.06249578 -0.023806829 0.05291127 -0.010974774 -0.0021289333 0.109239236 0.031166608 -0.025384042 -0.043384854 -0.06812251 0.03108687 -0.0044203154 0.04744426 0.042135492 0.049262665 0.03705151
고 -0.008497052 -0.05960977 0.052566826 -0.04369492 0.022894647 0.06895748 0.02704831 0.02324629 -0.018280113 -0.03307264 0.015770758 -0.080488995 0.0053548613 0.038921036 -0.031154346 -0.06869912
하 0.013152026 -0.07454985 0.009787668 0.009716662 0.0098342635 -0.020249339 0.01459761 -0.027830483 0.047590163 -0.03406921 0.0045567635 -0.029427432 -0.004512163 -0.02453511 0.0022916538 -0.024356017
을 0.034699764 -0.019435627 -0.03184518 0.06227162 -0.064563334 0.003291698 -0.02071835 0.0074484902 -0.05083898 0.002256335 0.008740535 -0.022346811 -0.004742197 -0.031341836 0.0012712546 -0.007871523
보 0.08248166 0.039786603 0.0316382 0.06670563 0.056091897 0.030396469 0.07535079 -0.07315058 -0.016665155 0.027634386 -0.020768505 -0.056910414 0.05259147 0.0012976639 0.049944222 -0.023547161
.. -0.01616326 -0.046394113 0.009321889 -0.035088874 -0.090786725 0.028477611 -0.0069754133 0.009010646 -0.0583001 -0.07101001 -0.06664089 0.032881044 0.032126453 0.06863346 0.0102311205 0.033194244
게 -0.015561162 0.049979795 0.02085629 -0.03922126 -0.08216139 0.024728853 0.02071346 -0.05402858 -0.008060212 -0.015188091 0.014198176 -0.11670436 0.0017874432 0.018586157 -0.057857662 0.08879259
, 0.03358041 -0.03323901 0.0065237554 0.03451249 0.019294472 0.02377283 0.016709981 0.009345981 -0.027814034 -0.0075590955 -0.04330328 0.0088546425 0.034272026 0.032272942 0.020371584 0.0046159965
! -0.032928415 -0.092553765 0.039015748 -0.08092354 0.025068672 -0.032410365 -0.029858503 -0.011289904 -0.033147164 -0.0015568341 0.072118945 -0.09016604 0.07361609 0.014792166 -0.05769319 0.001038058
지 0.062809534 0.04845914 0.041579872 0.019567516 0.032413512 -0.13841195 0.029312938 -0.04162555 0.09427995 -0.097920425 -0.03449074 -0.019163579 -0.014178058 0.011488782 -0.07728065 0.010778355
있 0.021365874 0.0308682 0.07144096 0.031167466 -0.036895066 0.047094025 -0.002607425 -0.014180162 0.07776667 -0.00947568 -0.022892661 -0.10261344 0.07212095 -0.03724057 -0.029055236 -0.045059178
없 -0.010814151 -0.07325558 -0.067495495 0.1145319 -0.024374211 -0.06930635 0.031860836 0.04161915 -0.0752809 -0.025002202 -0.0075097946 0.08336591 -0.13635586 -0.01980259 0.027295073 0.12051608
? 0.010814496 -0.007760353 0.01019401 0.03338248 -0.045514483 -0.0010979336 0.09862741 0.019315612 -0.0071230205 0.03516405 -0.009825804 -0.023605 0.0075331484 0.060688354 0.11349632 0.030293202
좋 0.14922947 0.053605344 0.14424966 -0.0061366316 0.1457152 0.050988417 -0.045253478 -0.1066899 0.096774705 -0.04901129 0.053827275 -0.05466825 0.04772652 0.11401773 -0.06769696 0.12524675
나 0.014929462 0.04593448 0.022928039 -0.013402892 -0.018745909 -0.03783461 0.020257369 -0.056529623 0.002785027 -0.025428409 -0.053902626 0.08602934 -0.046484455 -0.06686813 0.0060144626 -0.056541443
었 0.029830426 0.043073483 0.027054016 0.052194726 0.043974757 0.008803726 -0.029103914 -0.026682004 -0.029571382 -0.026006473 0.035350196 0.010608875 0.07791529 0.06845384 0.023423612 -0.025074415
만 -0.041892707 -0.062152606 -0.024815286 0.07593117 -0.04897196 -0.0036484215 0.0017478176 0.021987155 -0.0010981523 0.09637664 0.008939955 -0.03747592 0.017408192 0.030939886 0.044340808 0.017011007
는데 0.033163574 -0.0071495934 0.021271681 0.03861005 0.124414675 0.046214078 0.012609109 0.06682412 0.035588168 -0.107061796 -0.015158389 0.005847274 -0.017715741 0.03932457 -0.04475768 -0.103539124
너무 -0.029550288 0.0054980386 0.15819539 0.012006264 0.14668667 -0.061625443 -0.021463396 0.05716052 0.0139509505 -0.20933153 -0.17944533 -0.06893757 0.032719404 0.022172412 0.097711414 0.07732518
봤 0.020529876 0.06756925 0.017856212 -0.066729255 0.11795991 -0.008620314 0.011803047 -0.031968497 0.042432588 0.0014665572 0.0071558175 0.052726828 -0.027923616 0.034166772 -0.021257117 0.07825059
적 0.097240284 -0.014034498 -0.0044811433 0.053281676 -0.03747412 0.086031795 0.046845656 0.009968137 -0.04519575 -0.020188097 0.017989758 -0.099021874 -0.027163249 0.06354098 -0.010990334 0.066517584
안 1.534696e-05 -0.058623612 -0.004067487 0.011289849 -0.12389698 -0.00011344239 0.077252865 0.083845146 -0.014980674 0.1150209 0.044601467 0.07872322 -0.0017662364 -0.07681149 0.075596355 0.055197205
정말 0.010900695 0.0808198 0.11029062 -0.06700801 0.118043594 0.04676595 -0.000876436 0.008158746 0.011028816 -0.09494551 -0.067349866 0.032693457 0.066737205 0.07892264 0.02505955 0.089345925
로 -0.038865346 0.011788863 -0.0053929146 -0.036840186 0.022414051 -0.06023277 0.058482908 -0.024452442 -0.009575028 0.021913534 -0.054669768 -0.012943893 0.011146723 -0.12450811 0.03847664 -0.0909661
음 -0.052236874 -0.06927228 0.054977797 0.019842083 -0.078198716 0.07748402 0.003982498 -0.081234954 -0.04854488 -0.062387217 0.028118424 -0.043618537 0.04850189 0.012016281 0.039139155 0.05019756
것 0.047372334 0.00799528 -0.027192287 0.0520233 0.08120339 0.0005405962 0.007078565 0.015533268 0.008352 -0.008282355 -0.007137761 0.045470007 0.027069382 0.0002853483 -0.018488735 -0.020968223
아 0.0010878829 0.012260802 0.04338664 0.045621414 0.049247365 -0.06657685 0.02574305 0.01620281 0.038974315 -0.035832603 0.041332193 0.006994618 0.0048670736 -0.05028618 0.0047947564 0.06536759
네요 -0.03406224 -0.025530616 0.08724274 -0.06544217 -0.03791615 0.08758808 0.0083925165 -0.08367744 -0.085866034 -0.053078838 0.07386639 -0.10035043 -0.016369369 0.035631377 -0.028984819 -0.03133099
재밌 0.16111827 0.14380918 0.16031455 -0.08460386 -0.030770408 0.073691085 -0.10378057 -0.1492686 0.083302155 -0.11067864 0.0625 -0.07610446 0.14464553 0.051878758 -0.08727606 0.07419668
어 0.03190571 0.019564202 0.055841345 0.04524329 0.067729086 0.042165343 0.102828406 -0.025172379 0.077259764 -0.024233915 -0.06261032 0.037283584 0.05814353 0.015931722 0.014515816 0.029071048
같 0.008799197 -0.026548343 0.059824817 0.024836335 0.040636078 -0.029965786 -0.05269883 -0.0065107113 0.020945016 0.026976543 -0.011091096 -0.04019879 -0.01952135 0.014379183 -0.0053201555 0.07440045
점 -0.058459356 -0.055334635 -0.02337642 0.028697757 -0.11882177 0.14840831 -0.023786614 -0.036780924 -0.072159946 -0.07046664 -0.0051964414 -0.15815909 -0.012647756 0.15791656 0.18222564 -0.26180375
지만 0.07790702 0.108563386 0.06177077 0.031326864 0.18395203 -0.004089622 0.004183354 0.0088706985 0.16151726 -0.025816048 -0.10928021 0.02426294 0.071754836 0.0642407 0.025066571 -0.038691223
진짜 0.09415787 -0.011319254 0.07239112 -0.0029314917 0.064615324 -0.027772002 0.044813786 -0.028067162 0.011802084 -0.09276052 -0.031836115 -0.024980932 0.055142656 -0.0016817311 0.050346058 0.053556703
했 -0.037908487 -0.056621186 0.0066378005 -0.022895249 -0.0108315665 -0.009009163 0.011852668 -0.029738406 0.06168266 -0.002403174 0.014225745 -0.09046968 -0.020050414 -0.022239957 0.05338591 -0.03461503
에서 -0.025831414 0.015146973 -0.04368119 -0.06360187 0.016090712 -0.017876996 -0.054227382 0.030861758 -0.010754378 0.00028954603 0.04367795 0.052633416 -0.03002174 -0.051966492 -0.043763157 0.028739698
기 -0.034276824 0.04164261 -0.025817204 0.059499737 5.685896e-05 -0.06445748 -0.009678979 0.06772212 -0.052627098 -0.013376186 0.03360531 -0.088330075 0.013380209 -0.0063682306 0.018404434 0.044749964
네 -0.015341557 -0.06850745 -0.0063896165 -0.00058427954 -0.068501934 0.101338804 0.06456855 -0.045162767 -0.0399213 -0.085190095 -0.002295767 -0.0060072755 0.016613146 0.061269827 0.0603334 -0.051783174
않 0.06322759 -0.052278534 0.1301255 0.10342352 0.08387605 -0.059368405 -0.07766356 0.040050987 -0.04591968 -0.046115898 -0.029190311 -0.014590855 -0.015439305 -0.015593342 0.1831799 -0.31643075
거 -0.0239397 -0.015954513 0.01856414 0.071978375 -0.0024469257 0.03603655 0.009247769 -0.0048759445 -0.0034834186 0.011129266 0.031707916 0.023850443 -0.013050481 0.08766355 0.023411822 -0.09791154
았 0.051290903 -0.027828554 0.018365508 -0.036560822 0.030813536 -0.018920846 0.04643668 -0.019773697 0.020048285 -0.002293836 -0.03448152 0.01273314 0.00937747 0.07375149 0.052041005 -0.021049708
수 0.059700005 0.04181761 -0.0040390217 -0.004476329 0.07407208 0.05162931 -0.035323422 -0.057337224 0.087629445 0.09959306 0.08181072 -0.024160374 -0.03530281 0.14959157 -0.048255943 -0.033040285
되 0.03773808 0.0192125 -0.013516133 0.044342607 0.061015747 0.06684315 -0.027842013 -0.039475247 0.0015712123 -0.07955257 -0.0036578912 -0.09030335 -0.056551587 0.0115633635 1.1705502e-05 -0.00429172
면 0.026751949 -0.06920566 -0.04130557 -0.0569352 -0.04661267 0.004010213 0.023844473 0.01821319 0.06904736 0.029775187 -0.018148046 0.04077166 0.013881704 -0.07273304 0.063321054 -0.18586619
ㅋㅋ -0.0208312 0.032776427 0.018816957 -0.04011173 0.08171018 0.033357006 -0.06284613 0.025062688 0.02467655 -0.059111986 0.00079941074 -0.01807613 -0.008636732 0.018583 -0.103728466 0.047915205
말 -0.03629214 0.044620853 -0.0059537287 0.07943469 -0.016519908 0.0026813934 0.013427964 -0.09060706 0.02555059 -0.08970452 0.024438938 0.1112649 0.09497564 0.017830223 0.075370595 0.15302896
연기 0.020356575 0.038714796 0.044954207 -0.04542065 0.118688084 0.012617176 -0.000630247 0.02556591 -0.03629219 -0.011793183 0.050005443 -0.094168164 0.03518914 0.03556866 -0.0043673143 0.03102927
인 0.038889013 0.050707974 -0.04441643 0.026291253 0.0055891154 0.043946795 0.08100955 0.043671377 -0.03746574 0.003517393 -0.009884532 -0.018039888 0.022146545 0.036186874 -0.011394358 0.05141065
주 0.032999545 0.0021432736 0.031865448 -0.03463088 0.069260195 -0.022158151 0.032024395 -0.065483585 -0.0027851635 0.05154388 -0.004123795 -0.07022498 -0.013797622 0.037588794 -0.061927676 0.06952417
내 0.035152145 -0.03101069 -0.039545912 -0.02625774 0.033136036 -0.0007386567 0.005439652 0.01862499 0.019298172 -0.010974843 -0.019732824 -0.04107492 0.008435373 -0.022264255 -0.0004417675 0.051444847
최고 0.13176042 0.14909871 0.13936636 -0.08697016 -0.008234346 0.09236582 -0.14454056 -0.14426266 0.11794619 -0.13822867 0.08135228 -0.057682227 0.17038627 0.064256474 -0.12641717 -0.0445646
~ -0.07154956 0.008131783 0.042144064 -0.006082474 0.09881333 0.030175228 -0.017415546 0.030019058 -0.06320339 -0.01240512 0.022476954 -0.079791926 0.044643044 -0.045115143 -0.039341122 0.03904631
평점 0.056035418 0.052884787 -0.0042204764 -0.03168843 -0.012068223 -0.034372617 -0.035573516 0.08996955 -0.060553588 0.07527252 -0.03056781 -0.013764611 0.008586607 -0.12285721 0.069859356 0.05189977
이런 -0.0014478215 -0.017987419 -0.0062040584 0.022990063 -0.011815534 0.008337429 0.03980683 0.013147808 -0.0077921893 -0.09205228 -0.083056025 -0.04968856 -0.008518271 -0.08129142 0.061881687 0.0246
던 0.017221145 0.06640168 -0.04045427 0.027387097 0.012273168 0.01768664 0.022975553 -0.056263324 0.060752574 -0.020452837 0.0029456553 0.030681996 0.07530336 0.059510708 0.008309064 0.055847693
어요 -0.0687254 0.0020232347 0.09799629 -0.09883048 -0.058707874 0.12695965 -0.101467274 -0.11330216 -0.0899761 -0.053699028 0.082998104 -0.110682376 -0.011336403 0.10387068 0.0004268564 0.01413385
할 -0.011553861 -0.025380896 0.0026898056 0.08529605 0.056143105 -0.022943104 0.009004822 0.06615851 0.11935052 -0.07425402 0.040093057 -0.011051575 -0.003700331 0.013876634 0.03195323 -0.036738362
왜 0.010295824 0.016174026 -0.050607942 -0.09949232 -0.011533271 -0.04351035 0.015765179 -0.010646352 0.03777123 0.07046175 -0.012966015 0.077936575 0.04163043 -0.08916465 0.00879505 0.16226512
겠 0.002948172 -0.03301105 -0.010401364 0.0778708 -0.0071721193 -0.07605045 -0.0061875205 0.016648622 0.0037110052 0.05191769 0.0077441502 0.010878757 -0.112704955 -0.054553024 0.02221306 0.012795258
1 -0.06606437 -0.06619607 -0.07510632 -0.0401171 -0.042839456 0.021700455 0.038296897 0.07803572 -0.008389495 0.06662205 -0.057445783 0.07690337 -0.012698192 -0.07302932 0.06290923 0.08974434
스토리 -0.052131876 -0.047754478 0.053619932 -0.033879045 -0.023877326 0.053895667 0.052729428 0.053659324 -0.09117075 0.018450204 -0.051954113 0.040194046 -0.062967725 0.027305268 0.1174813 0.051673904
해 0.041573696 0.00902991 0.002695711 -5.6300312e-05 0.026223421 0.0070523066 -0.03770745 0.01766197 -0.018874269 -0.026415061 0.019442856 -0.06471374 -0.056705214 0.041999247 0.038024057 -0.023386799
습니다 0.05463657 0.030735524 0.025402017 0.013067069 -0.002190806 0.07962378 -0.027591642 -0.0195791 -0.00058004976 0.06709583 0.034314238 -0.06654291 0.011924306 -0.043095216 -0.0741869 0.017677596
ㅋㅋㅋ -0.05204207 -0.017204437 0.0024045473 0.0060875425 0.05948321 -0.0048903297 0.0049959747 -0.017975966 0.053066727 0.03071485 -0.027118837 -0.019747367 -0.054052494 -0.005540491 -0.019670846 0.027921084
... -0.016810164 0.017144468 0.047903817 -0.048619017 0.0012764408 0.011860486 0.044977784 0.045205407 -0.022627106 -0.01585889 -0.093322985 -0.043752044 -0.010498919 0.05657021 0.04433545 -0.011543035
드라마 0.012575196 0.055134162 0.021872122 0.007385197 0.027296407 0.071258985 -0.0012742226 -0.013662768 -0.0069594705 -0.031010332 0.02263275 -0.037114587 -0.010165799 -0.039097946 -0.036475092 -0.057836674
생각 0.060422353 0.025469255 0.04337713 -0.080935016 0.024678273 0.07006107 -0.03821826 -0.0603893 0.073261574 -0.010473096 -0.002491203 0.02363604 0.014296856 -0.030533615 0.0028744803 -0.007586629
아니 0.016646422 0.004540549 -0.037248816 0.0806337 -0.02099571 -0.07514927 0.0016712025 0.086397596 -0.03223521 -0.031021927 0.015739089 0.09588188 -0.014681499 -0.09952349 0.033961866 -0.07681111
더 0.032127343 -0.05424567 -0.08552563 0.03546247 -0.029410118 -0.061027527 0.008381704 0.010923142 0.03308234 0.041274846 0.100126706 0.05460348 -0.0067280484 -0.030366609 -0.028373478 -0.09618199
그 -0.005472432 0.0728521 0.0071418593 0.035293285 -0.044416543 0.0015652432 0.0035372016 -0.0256407 0.02425543 -0.10695963 0.03545963 0.013502686 0.013224647 0.0449482 -0.008588214 0.008795289
싶 -0.026939 -0.0073388983 -0.017337862 0.041066732 0.028002512 -0.024241565 -0.04635248 0.002089683 -0.020279566 -0.04544143 -0.0038451296 -0.08314551 -0.010053102 0.09095201 -0.047892448 -0.0455129
사람 0.016476119 0.068539895 0.0109679885 -0.032534253 -0.019179005 -0.028934581 -0.07854153 0.023983473 0.055317592 0.051142856 0.06940939 0.03903143 -0.03470968 -0.0071161347 -0.02694259 -0.054160375
듯 0.0038515355 -0.07996652 0.03474758 0.04971284 -0.011326507 -0.0471455 0.01369729 0.008447105 -0.04509893 -0.080811165 0.04187326 -0.01141214 0.016067652 -0.051701628 0.027816728 -0.05881886
때 0.045776743 0.044562567 -0.0355507 -0.05061934 0.05246532 0.02482384 -0.020698292 -0.08164728 -0.0054867384 0.08196598 0.011631022 0.03176587 0.019932702 0.020555599 -0.06050302 -0.105039485
감동 0.12026752 0.11608138 0.1397785 -0.08978153 0.121119395 0.05502855 -0.06906132 -0.06810317 0.020331923 -0.16219385 0.093562685 -0.028322833 0.029286768 0.16072732 -0.1229261 -0.047623537
함 0.01976478 0.009565194 0.026264532 0.0040953155 0.013244297 0.039004605 0.00864324 -0.092913635 -0.034523092 -0.037750177 -0.050718136 -0.007122215 -0.007665914 0.09139014 -0.010688566 -0.0145409
배우 -0.036542118 0.037556916 -0.050776407 0.052537072 0.08915642 -0.035501298 0.021147136 0.08334416 0.03424945 0.0041325707 -0.04244919 -0.0724223 -0.0040422054 0.0465492 -0.0345775 0.09011165
본 0.03735666 0.020022767 0.0037715656 -0.012149901 0.069632165 -0.0022779196 0.0064678877 -0.03980745 0.03017991 -0.012664327 0.047386188 0.008545528 0.026943706 0.08177967 -0.025901886 0.09696631
까지 -0.02148262 0.01728998 0.0069578444 0.01785565 -0.028611423 -0.02631457 -0.03384119 -0.028939772 0.0016948035 0.027423255 -0.0008679973 -0.009310013 -0.029779479 0.0140579445 -0.050849024 -0.053333025
뭐 -0.027405886 -0.06770688 -0.0328823 0.037676606 -0.08665589 -0.012639038 -0.004019712 0.064825125 -0.08982333 0.118901946 -0.044305477 0.023834359 -0.038202062 -0.03923876 0.012481021 0.09551723
알 -0.080078386 -0.030376408 -0.015439619 0.03522644 0.0015589749 -0.013620455 0.017923515 0.035171147 0.03961872 -0.015577524 -0.010544047 0.026051022 0.027435495 -0.045598406 0.0056269104 0.038060635
만들 -0.047785074 0.04763552 -0.06272196 -0.019716896 0.0332786 0.022203336 0.04334611 0.0051762443 -0.12333075 0.022634467 -0.08083735 -0.11081327 -0.03261652 -0.0022349984 0.018857773 -0.0026574892
내용 -0.032936443 -0.06814486 -0.04296963 0.01305716 0.00077760726 0.004874753 0.031826273 0.010906613 -0.043939117 -0.040816657 -0.12082889 -0.024026133 -0.055458765 -0.014635212 0.0029572074 -0.08883573
볼 0.06608844 0.00018202372 -0.059621044 -0.10413697 0.12521856 0.07689643 -0.02969809 0.032807734 -0.01990234 0.09852999 0.10800035 -0.08348584 -0.0061899186 0.004700773 -0.0019584496 -0.05896533
감독 -0.07795652 0.020418325 -0.04338685 0.05412554 0.08850634 -0.10557915 0.07919471 0.029712548 -0.076369375 0.046235953 -0.10770557 -0.01313972 0.005802896 -0.0051253606 -0.018232219 0.06214857
보다 0.11018428 0.036772367 0.03003938 0.013798896 0.096446946 0.009738867 0.033979394 -0.017812978 -0.06310175 0.013681732 -0.0053350106 -0.0004147566 0.050282966 0.028392222 0.03855237 0.011540273
라 -0.01816404 -0.024877384 0.019836782 -0.0051384447 0.00718125 -0.014511236 0.030371755 0.062747456 0.09569745 -0.098213576 0.0016827956 0.11200812 0.02587932 0.0019868652 0.081290364 0.04288528
그냥 -0.067547 -0.058381088 0.048809532 0.029971657 0.033743553 -0.07447964 -0.0007197311 0.029752841 -0.04648713 -0.043538146 -0.10181917 -0.10400572 -0.057238586 0.066439204 0.01475844 -0.014684217
재미 0.041469377 0.076340124 0.10275493 -0.013459184 0.09547922 -0.025062162 0.0091126235 0.0015639123 0.00031234336 -0.124873884 -0.14316943 -0.11594908 0.022637744 0.008501573 0.02620507 0.117953375
시간 -0.06585357 0.03140443 -0.07317163 0.009735995 -0.018703919 -0.08153882 0.036602825 0.00812859 0.013174634 -0.031835325 -0.08901405 -0.007994658 0.029243002 0.054940693 0.0015581847 -0.059497364
지루 -0.040478427 -0.058505785 -0.0972567 0.16154377 -0.08241056 -0.107543916 -0.025747007 0.08123857 -0.072346695 0.020816548 -0.014232154 0.23637907 -0.097331055 -0.060942713 0.147256 0.1465
중 0.0851654 0.105399415 0.009214928 -0.043528825 0.01783427 0.009915788 -0.009791669 0.036497373 -0.022413574 -0.018957445 -0.012353683 0.011616422 0.01762461 -0.028085351 -0.015904343 -0.066709
재미있 0.10381783 0.053845346 0.10324341 -0.07444844 0.08798528 0.081931 -0.07255406 -0.07949648 0.1406673 -0.07777306 0.064764045 -0.084381044 0.15602204 -0.07416637 -0.14034082 0.05258715
년 0.032867726 -0.0019741242 0.05234029 0.02089968 0.0056068036 0.005414431 -0.065989636 -0.03217777 0.038148697 0.051072657 0.010092229 0.021259366 0.058716934 0.08291568 -0.03889732 0.00070917746
10 0.054969415 0.034422506 0.08290174 0.0008767527 0.09594219 0.021329032 -0.033888973 -0.15990666 0.11204346 -0.118715055 0.09212139 -0.08567008 0.062148705 0.10676241 -0.20864818 0.1929994
였 0.016819948 0.026773592 -0.00054053613 0.008064845 -0.0440392 0.026820278 0.012793759 -0.0015951586 0.046554737 0.029369254 0.017225651 -0.057494946 0.07784191 -0.01275365 -0.1101471 0.026381161
잼 0.12910174 0.08159582 0.11318762 -0.035293274 -0.038025144 0.04544237 -0.036446925 -0.0584467 -0.017844204 -0.22398756 0.03891596 -0.16496961 0.1421637 -0.032002646 0.022149058 0.05805963
사랑 0.06974054 0.0547799 0.086185075 -0.079745606 0.050011262 0.06274077 -0.08693898 -0.10606723 -0.0042983014 0.008100603 0.08079674 -0.14090487 0.14205357 0.031125983 -0.07422248 -0.011920641
못 0.0064089424 -0.08160685 -0.07885073 0.013457496 -0.10996622 0.009352888 0.08610975 0.10356457 -0.01810181 0.019872813 -0.035856858 0.092857994 -0.027282715 -0.08655513 0.04924288 0.02734781
냐 -0.03805451 -0.08901875 -0.055631388 0.08028338 -0.092204556 -0.079182975 0.0720958 -0.035849035 -0.006326301 0.0012769366 -0.041512333 0.029427294 -0.017511306 0.025842853 0.07843972 0.02207429
재미없 -0.10569598 -0.1555124 -0.12868784 0.09219802 -0.06954963 -0.11098676 0.105264075 0.12731785 -0.07485196 0.09803804 -0.09658504 0.06922312 -0.14766687 0.018677048 0.10600132 0.06792373
쓰레기 -0.091507114 -0.111617245 -0.14355049 0.15039805 -0.071685664 -0.112566106 0.17026725 0.08173205 -0.15173218 0.10316199 -0.14389978 0.09969853 -0.07964723 0.085524336 0.18271084 0.13279016
서 0.027354302 -0.03167866 0.054052845 0.019658728 -0.00047261108 -0.06897221 0.022693314 -0.041083407 0.0123479245 0.013515802 -0.005492559 -0.06749715 0.017467292 -0.034595225 -0.09590853 0.10092328
2 -0.03553735 -0.05435995 0.01325245 -0.07159202 -0.08447117 -0.011972573 -0.05118853 0.071247704 0.039176654 -0.026930414 -0.022473475 0.03674833 0.005008044 -0.055141356 0.12170929 -0.045583256
라고 -0.06830043 -0.040822875 0.04711655 -0.07709482 0.019006982 -0.00040240234 -0.020103155 0.06815564 -0.017173368 0.009122135 -0.07099302 -0.00086518284 -0.04695453 0.046178874 -0.015822211 0.09938167
야 -0.04772238 0.036155295 0.04381234 0.07510162 -0.052511714 0.006087869 0.028201036 0.03434699 -0.060757797 -0.055852305 0.029068034 -0.05322262 0.031875625 -0.019981548 -0.016520502 -0.07253505
니 0.0287415 0.066068806 -0.030114423 -0.025945954 -0.011223851 -0.0044006016 0.02975704 0.085251674 0.00198227 0.0060791266 -0.009983294 0.014939351 0.014265181 -0.032944538 0.0100234505 -0.010291778
면서 0.054959007 0.0016848227 0.027907826 -0.0032087269 0.018085638 0.016563091 -0.06587576 -0.038005732 0.021059742 -0.013614523 -0.023661098 0.042238794 0.032934826 -0.029797498 0.04909659 -0.0040399483
번 -0.0014071254 0.020539828 0.018145066 -0.03094866 -0.017910987 0.023795024 0.01999691 0.015338536 0.12455096 0.033681918 0.102224894 0.01631176 0.011632747 -0.026774028 -0.096045546 -0.0108541725
다시 0.08736998 0.09473856 0.104906954 -0.021054706 -0.023323353 -0.014649264 -0.04341784 0.019843891 0.10517798 -0.06355757 0.020799672 0.017705714 0.080656275 -0.028956499 -0.029721936 -0.023055831
나오 -0.05695864 0.008484826 0.007221706 -0.016651034 0.044767585 -0.04272543 0.025455989 -0.021347957 -0.04724901 0.039504156 0.0005282234 -0.018278943 0.009269246 -0.11138066 -0.025246574 0.08806472
작품 0.028562553 0.025819099 0.050793715 -0.04354059 0.16118154 0.042070545 0.008524909 0.0042528217 0.03774656 -0.0026501662 0.08052614 -0.06829784 -0.0053204037 -0.03555495 -0.0039918213 -0.0025990293
이거 0.009355921 0.031742748 0.01338517 -0.03884559 0.03612086 0.0007507538 -0.028400134 0.077998064 0.02436201 -0.045883257 -0.044867095 0.06535649 -0.05261865 -0.061516084 -0.048080985 0.0069466857
하나 -0.019784873 0.0041779694 -0.046270322 0.025283018 0.028004324 -0.011492812 0.005796523 -0.02168684 -0.06637811 -0.059308592 -0.058359805 0.017006176 -0.053822853 0.023157347 0.026415238 0.010264726
줄 0.0011952226 -0.035103105 0.0005572201 0.008202262 -0.017389711 -0.053610228 0.001855884 0.0124688875 0.045971896 0.0036520525 -0.009455691 0.008413841 -0.08678772 -0.11055299 -0.031692863 -0.06340532
해서 0.028315045 0.008944987 -0.012112847 -0.02948434 0.07683279 -0.03046397 0.006495668 -0.045403298 -0.0026970215 0.023469577 -0.054603327 -0.14775187 -0.031074217 -0.026859783 0.036693584 -0.018045612
개 -0.023189196 0.00029839698 0.011516599 -0.038948145 -0.06396078 0.033584673 0.04464673 -0.019706149 -0.04487136 -0.09089345 -0.10176087 -0.023671795 -0.029993342 -0.024020167 0.033720598 -0.114141874
남 -0.028589247 0.007660594 0.07176706 0.038784817 -0.015269907 0.078448795 0.06384042 7.518436e-06 -0.055823337 -0.031457227 0.06753419 -0.0072934637 -0.026868807 0.16225395 -0.07128954 -0.014792066
정도 0.058413688 0.02459889 -0.008082442 0.056803886 -0.062813826 -0.011067722 0.018871607 0.07652636 -0.010356029 -0.06789952 -0.05246187 0.005130287 0.04970903 0.026149483 0.03913262 -0.0949618
마지막 0.039882395 0.05013736 -0.0066560353 0.00080994004 -0.033427663 0.05277604 -0.006639059 -0.023543196 0.032143697 -0.06843809 0.045478117 0.0076616933 0.09501209 0.069830336 -0.013021597 -0.03660053
끝 -0.021912912 -0.0445886 0.00044088488 0.11168809 -0.052513927 0.06330563 0.058651365 0.01614701 -0.029233763 0.0017556428 0.03617685 0.08777356 -0.024914376 0.06507724 0.08176054 -0.055267498
이건 -0.001031573 -0.096191704 -0.03077018 -0.050268408 0.08021327 -0.05299651 -0.006124765 0.07840403 -0.0030732187 0.037152726 -0.20038466 0.088979885 -0.03202656 0.104560725 0.07420099 0.1755502
액션 -0.01958771 0.028984526 0.018494867 -0.029130183 0.056326278 -0.021438558 -0.061645173 0.005964451 -0.0045074564 -0.03169949 0.067850664 -0.0321818 0.0004627814 0.04930584 0.022615638 0.0017394148
임 -0.009031385 0.0067117997 0.045531686 0.017881624 0.042387776 0.0154293 -0.048660986 -0.042861722 0.00898683 -0.049972005 0.011014214 -0.037577044 0.02583489 0.0032910805 0.026738696 0.033319492
ㅋ -0.035650134 -0.056847703 0.00097607536 -0.06863735 -0.009562836 -0.062928595 -0.047367524 -0.013262455 0.012264239 0.051519196 0.025357828 -0.104696 0.047398657 -0.0007862541 -0.086739935 0.04535494
3 -0.054899883 -0.03424229 0.04197297 -0.05585443 -0.02376493 -0.04893739 0.00059414393 0.051140565 -0.009233802 -0.029934132 -0.05572014 -0.005048938 -0.08346 -0.1376842 0.067096524 -0.08578061
기대 0.006368065 0.042870585 -0.024937075 -0.011805013 0.13830571 -0.021028576 0.025431437 0.030487522 -0.0017218376 0.013275522 -0.04121096 0.03901795 -0.023553165 0.05954076 -0.06303563 0.010845421
입니다 0.044929255 0.03058522 0.06835175 -0.011946523 -0.0023779818 0.10650496 -0.061222382 -0.0362842 -0.050196696 -0.04794394 0.025103414 -0.014154328 -0.016787875 0.0996733 0.042791247 -0.022797378
건 0.014720805 0.0037054066 0.00273188 0.09887545 -0.037623573 0.0077158744 0.043165628 0.021560233 -0.03311465 0.051780853 -0.001662761 0.03405464 0.02339975 0.014434055 0.02183313 -0.0075645735
라는 0.006338845 0.043287255 -0.043521877 0.08064337 -0.013283952 0.04574417 -0.057648905 0.04198567 0.028421722 0.021849576 0.03101591 0.005603158 -0.020041857 -0.015625942 -0.0030653535 0.014100956
분 -0.01132303 -0.05882559 -0.04652993 0.014937096 -0.03287607 -0.0908486 0.03693072 0.059744596 0.019909108 0.058475815 -0.0422934 0.07951483 -0.025958605 -0.025775393 0.014770781 0.053388905
완전 0.03384235 0.10327512 0.10780609 -0.055609178 0.059641924 -0.011824027 0.0074117477 -0.0022283664 -0.0097593935 -0.17881407 -0.08095094 -0.0015456175 -0.07059675 -0.022823052 0.09999352 0.10319256
다는 -0.042078935 0.020749284 -0.033284068 0.06870524 0.00094887643 -0.010130226 0.03671125 -0.0038306322 0.06894132 -0.009034253 0.01104671 0.07091558 -0.023831993 0.014229003 -0.043452937 -0.027401404
참 -0.016821163 -0.049365588 0.010152508 0.0654495 0.03194415 -0.03257226 0.038104516 -0.0056940448 -0.048392247 -0.08635553 -0.06647935 -0.024387617 0.020861361 0.08651134 0.017944422 -0.05634973
많 0.05117664 0.057992313 0.047215022 -0.033041116 -0.08160269 0.027493397 -0.0511195 -0.018311497 0.054597944 -0.007094506 0.049639277 0.116457544 -0.017832825 -0.09380704 0.038334064 0.008441859
처음 -0.057130225 -0.027402462 -0.07713364 0.0058462135 -0.06491339 -0.03398492 -0.059111394 -0.0135133 -0.005571833 0.061226863 0.06587111 -0.04346716 -0.025613466 -0.01504422 -0.04102823 0.03238648
장면 -0.092380814 0.020552337 0.014444492 -0.019400448 0.101272866 -0.03989898 -0.05065173 -0.03623114 0.057158053 -0.037296817 -0.04146848 -0.022034192 0.033717457 0.03216775 -0.03950666 -0.0155256875
대 0.014308551 -0.004330211 0.013614896 -0.020149635 0.06178302 -0.047412027 -0.058447376 0.011404995 0.014221979 -0.03343212 -0.021103742 0.102672845 0.03742473 0.08124516 -0.029117826 0.01027986
아깝 -0.10439187 -0.14789943 0.01604872 0.1090278 -0.084855676 -0.069922745 0.015245688 0.1442927 -0.007893331 -0.029555352 -0.066069745 -0.013812556 -0.20164947 -0.07080829 0.03396374 -0.09654199
다가 -0.01731772 -0.081940204 0.05409227 0.054036517 0.015795661 -0.03348593 0.052247416 0.09136459 -0.024012042 0.010328764 -0.049488112 0.055132493 -0.07557246 -0.004798363 0.11967926 0.036551427
으면 -0.022369666 -0.0025889338 -0.004475411 -0.024110684 0.005480004 -0.024962176 -0.0473601 0.06713818 -0.017477976 0.026218962 0.020023488 0.06166432 0.0010478974 -0.017715944 -0.10742556 0.022997834
지금 0.012999573 0.02829631 -0.0034101852 -0.043272518 0.075191356 0.06078494 -0.04400088 -0.011322079 0.10735189 -0.026404448 0.09141614 0.021858444 0.02707218 0.107043006 0.025409577 0.0023455175
모르 0.03420183 0.13051254 0.013649834 0.028756982 0.05566097 -0.015834985 -0.029149966 0.02510521 0.043722358 -0.1311688 -0.00842907 -0.052524123 0.017933274 -0.0879848 -0.04578107 -0.06192409
이렇게 0.025142705 -0.0060575507 -0.02234954 0.016530413 0.094947524 0.0039800764 0.02629763 -0.07073153 -0.022188958 -0.1427147 -0.113633245 -0.060625758 0.03856945 -0.044097774 0.046940424 0.018533142
' -0.04055655 -0.057043903 -0.024086779 0.024948483 0.078663066 0.037264064 0.00060318573 -0.010036784 0.03465447 -0.03612433 0.033477906 -0.032293763 -0.008041524 -0.003523517 0.010980211 -0.03753476
편 -0.02326284 -0.004679495 0.05503711 0.01404533 0.014641469 0.020920966 0.00683602 -0.020221813 0.013000675 -0.029524412 0.07773864 -0.04608412 0.06910239 -0.025596607 -0.12585661 0.0057383557
일 -0.006542264 -0.026691884 -0.072286844 -0.0032185838 -0.029753324 -0.018306958 -0.04638712 0.034354944 0.06539408 -0.037733294 0.058937788 0.08296289 -0.026047716 0.08407058 0.064553864 0.05638353
돈 -0.098549835 -0.037587438 -0.101353936 0.13561414 -0.10772815 -0.14473647 0.06930982 0.09044308 -0.071716875 0.01089608 -0.032089088 -0.039688695 -0.10242616 0.02748072 0.063351385 -0.00044451602
이게 -0.026512511 -0.03523341 -0.06069951 0.024796423 0.053795077 -0.052665886 -0.03526279 0.06152709 -0.0463875 0.021563618 -0.027170708 -0.059756827 -0.06654652 0.027440263 0.04967305 -0.0062864777
성 -0.023035837 0.06785697 -0.028535606 0.08846158 0.06658669 -0.043601144 0.03161111 0.005745854 -0.028120926 0.0102248965 -0.006935263 -0.0023017088 -0.044034097 0.00861581 0.047737867 0.048833117
느낌 -0.027607465 0.035051744 0.02756203 0.014106536 -0.023006275 0.022274148 0.0651483 -0.0031168535 -0.024832712 -0.032164488 0.0151261175 -0.002382971 -0.03780688 0.030135052 0.010781303 -0.006490804
시 -0.0149463555 0.0015197209 0.009658819 0.029232869 -0.02578283 0.012410541 -0.003938902 -0.041232463 -0.02394808 -0.028544104 0.018263282 0.0005182578 -0.03783551 -0.0709634 0.012652212 0.013227101
이야기 0.06996964 -0.022241296 -0.006310793 0.01799256 0.02499258 0.027703261 0.028234284 0.013823996 0.06664894 -0.026860613 -0.0057951324 0.046470948 -0.0024084805 -0.03622604 0.022124862 0.0942806
최악 -0.23977278 -0.16398335 -0.22943759 0.26506647 -0.17715319 -0.26733416 0.19582972 0.24046984 -0.22185232 0.21172065 -0.21325032 0.15346523 -0.21555094 0.18337981 0.1707473 -0.059260707
된 0.08180461 0.019251257 -0.017047366 -0.0118132075 0.028458063 0.005689206 0.02991788 -0.06546783 -0.020190045 -0.07549762 0.010378181 -0.024165567 0.0153887505 0.02817687 -0.020232188 -0.11597239
봐도 0.070150256 0.017001148 0.03572559 -0.04045521 0.0155624375 0.10675779 -0.07387694 -0.11419804 -0.07601438 -0.17287786 0.13513035 -0.0061223065 0.00972874 0.015193907 0.058712613 -0.07451491
님 0.0055892407 -0.010682057 0.008114586 -0.059357524 0.009846605 0.058585994 -0.10055639 -0.07222077 -0.043333314 0.034110837 0.015390966 -0.027644403 0.03253333 -0.027550334 -0.095733345 -0.077199
어서 0.011277957 -0.053704556 0.06283803 0.0065682945 -0.06751922 0.013919411 0.00501545 -0.020508671 -0.0021889051 -0.05635365 -0.012295812 0.014245879 -0.039259925 -0.012364751 0.060491845 -0.06561416
애 -0.029389448 -0.046055485 0.022767093 -0.0035813993 0.008130161 0.03540348 0.024606554 0.053907435 -0.033663046 0.024818987 -0.07063399 -0.011571321 -0.025095247 0.0071555506 -0.013361739 0.009907001
전 -0.012625299 0.030817755 0.04180839 -0.04080753 0.01902956 0.039833132 -0.007387546 -0.06433791 -0.044580054 -0.017598217 -0.06924044 -0.0041403715 -0.015009921 0.006835639 -0.031341024 0.08990264
넘 0.046650596 0.011511114 0.09044157 -0.030293081 0.093939625 0.051564347 0.02712944 -0.021722304 -0.041896228 -0.106879316 -0.050281506 -0.10197707 0.06169369 -0.034410257 0.10735741 0.14597286
ㅠㅠ 0.012555142 0.03924471 0.07653209 0.020536697 0.04123353 0.03550073 -0.08482301 -0.07173168 -0.048018772 -0.06673798 0.10673813 -0.101513095 0.019382583 -0.05151383 -0.039679293 0.043989353
인데 0.026049452 0.060848236 -0.02708313 -0.031791434 0.0412081 -0.04072276 -0.010764781 0.042220194 -0.023165977 0.01461508 0.053682104 0.050656352 -0.03223766 0.021753041 -0.05286038 -0.017034642
다고 0.08345004 -0.03045193 -0.068752125 -0.06313794 0.0267295 -0.11524703 0.030312901 0.075021125 0.09972876 0.094095826 -0.05501314 0.10464273 0.0346018 -0.07888088 -0.11821852 0.13652937
이해 -0.028452968 0.006758684 0.01358013 -0.026297698 0.046026908 0.004106409 0.038287155 -0.022078786 0.04659501 0.07404604 0.008650026 0.015010252 0.0051910165 0.02511973 -0.035583522 -0.07888504
별로 -0.08631489 -0.069672495 -0.13074256 0.12557909 -0.13742717 -0.08703353 0.058255892 0.12514302 -0.060793474 0.03071981 -0.086841814 0.10761645 -0.13756812 0.09423625 0.1347752 0.08011302
그리고 0.10173983 0.027449625 0.08541697 -0.061027598 0.09196792 -0.01589466 -0.041940864 -0.019676453 0.10330403 -0.030185668 0.0241138 0.012028348 -0.023694612 -0.029510576 -0.026122306 -0.060210694
명작 0.11282095 0.13047272 0.104743764 -0.11360418 0.1742424 0.13000686 -0.105668 -0.15462233 0.10362801 -0.06418743 0.14287215 -0.10527663 0.1088095 0.09885997 -0.12285025 -0.045065504
여자 -0.095914766 -0.079406075 -0.08491318 -0.00512656 -0.01334719 0.04421277 0.008897824 0.067353494 -0.02194846 0.053769086 0.010230587 -0.04570628 -0.014563881 0.04378723 -0.009069936 0.0071977004
^^ 0.051181182 0.046374734 0.07609119 -0.0980731 -0.0126563115 0.07680033 -0.04997406 -0.07530888 -0.04730475 -0.071226835 0.12644276 -0.111440465 -0.0021809258 0.0034611605 -0.04759349 0.018168297
역시 0.06271266 0.08669183 0.07726443 -0.048168223 0.09319554 -0.029746182 -0.09905707 0.013908667 0.10742036 -0.0019815841 0.053278264 -0.011702899 0.021083215 0.0033787712 0.0069084135 -0.0034229315
난 0.13262966 0.014715648 0.08984838 -0.029087976 0.072197184 0.06651293 -0.044163562 -0.045135904 0.0023083594 -0.04718423 0.043158256 -0.0038393447 0.022018818 0.021723524 0.03638919 0.038634777
이상 0.004181925 0.074989885 0.069529325 0.07226695 0.03849771 0.043161575 0.021710016 0.016306814 -0.008014215 -0.079957254 -0.07281094 0.09733679 -0.061296917 0.075452246 0.03625492 0.10815708
또 0.06547155 0.07005815 0.019838734 -0.026594756 0.018906001 0.011200881 -0.07175007 -0.008436583 -0.003031473 -0.05598188 0.08635098 0.022131111 0.0050076856 0.019886771 -0.07543449 -0.029692015
걸 -0.01277876 0.004618242 -0.0015853143 -0.01662886 -0.070818566 -0.03141043 -0.00823323 0.0015865593 -0.07855624 0.048890315 0.008995517 0.017322678 -0.051858492 -0.020837795 0.061799772 0.07756896
한국 0.008945493 0.0589293 -0.058802884 -0.022673761 0.0015459036 -0.015841834 -0.013863777 0.045107067 -0.010633177 -0.012090355 0.051126186 -0.040133014 0.052801825 -0.017097745 0.023163822 -0.11020395
는지 -0.026232664 -0.019690158 -0.05191844 0.0072161644 -0.0057660886 -0.040032394 0.03465873 0.008342655 -0.0036267852 0.019290257 -0.02602746 0.09832953 -0.048457343 0.026553014 -0.016407147 -0.031664837
많이 -0.011031119 -0.011516115 -0.02546094 0.009841694 0.016031967 -0.019078854 -0.02196183 -0.05533289 0.03261777 -0.073113546 0.05263036 0.037579723 -0.016450858 -0.07367846 0.031758633 -0.078372985
에게 0.0069000674 0.07877853 -0.0106268935 -0.003493738 0.0704835 -0.041281603 -0.06002056 -0.045715723 -0.040588625 -0.048520386 0.027062349 -0.03098672 0.0071618436 -0.11381206 -0.015206384 0.00917585
부터 0.0418559 0.0072328057 -0.0023864375 0.00892873 -0.021083448 -0.081597015 0.047487415 0.007993951 0.035630506 0.016850913 -0.07655942 0.060400795 -0.024713546 0.05291963 -0.047982704 -0.027301224
만든 0.042475764 0.0277163 0.0068349843 0.00068858574 -0.010814735 0.041867074 -0.03327255 -0.06447728 -0.0054607606 -0.032003175 -0.07179186 -0.0908767 -0.028583094 0.036956906 -0.0035714845 -0.096280955
주인공 0.011078482 -0.046188343 -0.044757705 0.102976836 -0.023624197 -0.009847109 -0.021197764 -0.0027125853 -0.06692827 0.015677493 -0.030013496 -0.021596396 0.029002609 -0.01879158 0.008701808 -0.020295966
받 -0.0069954377 0.037507266 0.027413562 0.052716393 -0.00052208576 -0.029375838 -0.038851373 -0.008485052 -0.0047648614 -0.008447562 0.056295708 -0.023537826 0.016212635 0.05550524 -0.021052781 0.020370128
합니다 -0.027336666 -0.012704668 0.06735083 -0.0012276374 0.09205682 0.06433111 -0.053088307 0.011952903 0.04884961 -0.026892822 -0.02545161 0.0005888778 0.018919338 0.08382824 -0.031031692 -0.005624395
우리 0.061488472 0.101346076 0.10352188 -0.061011825 0.026441423 0.097631015 -0.0678032 -0.09660558 0.017225683 0.0010706977 0.038161367 -0.016312135 -0.015820445 0.057222243 -0.07572273 0.029357253
두 0.042477284 0.010132711 -0.027215289 0.071808815 0.011418525 -0.037557174 -0.0097171785 0.022094363 0.034452736 0.0013856747 0.00658131 -0.01794207 -0.0104485955 -0.03113125 -0.026399156 0.035062663
살 0.04353762 0.013371379 0.0023116544 -0.019102583 0.018983187 -0.01324434 -0.010507167 -0.047846247 0.06866044 -0.0524147 0.03599405 0.029788606 -0.029064413 -0.010201574 -0.09517147 -0.095244706
!! -0.024285493 0.023770364 0.01657305 0.026971137 0.024660245 -0.052226253 -0.035978217 -0.026943494 -0.020503417 0.035882268 -0.04312143 0.050500948 0.027266735 0.014452833 0.04226934 0.07656103
길 0.021163635 -0.0244104 -0.073756546 0.032633282 -0.038086124 -0.0003071899 -0.0016622705 -0.040663127 -0.020811152 -0.00896612 0.008217594 0.0005664405 0.033341657 0.03973534 -0.016125731 0.0069950507
엔 0.019079996 -0.019303173 -0.093360856 0.06690627 -0.059463795 -0.033257954 0.043322403 0.0016417427 0.05560188 0.046646036 0.0073843254 -0.029829646 0.013111568 0.0034802882 -0.058011632 0.044829242
괜찮 0.15822698 0.04163128 0.09007948 -0.09230053 0.058381643 0.05203152 -0.09846186 -0.115910694 0.058335226 -0.09260706 0.02403646 -0.08477105 0.060694013 -0.013663539 -0.039468046 0.051442962
기억 0.0024595868 0.060923353 0.036096897 0.007462037 0.09465626 0.072375275 -0.018949412 -0.017606258 0.0005812208 -0.05866121 0.07522392 -0.087792076 -0.0021878458 0.016783161 -0.06795081 0.06599591
연출 0.006255854 0.007333762 -0.01742642 0.017829804 0.03360009 0.04479676 0.06319966 0.0076200655 -0.015271963 -0.11975848 -0.07442586 -0.0030374452 -0.028066436 0.105640866 0.041487742 0.0048416145
한다 0.047687944 -0.023944562 -0.020121807 0.029983591 -0.017269405 0.039236955 -0.013097853 -0.054231588 -0.031804916 -0.106803305 -5.3018917e-05 -0.020886842 -0.014372943 0.07336769 0.0017657371 -0.0033799526
때문 0.06219731 0.00224814 -0.049714193 -0.044473357 0.12997672 0.0564338 0.04498276 -0.0038580522 -0.022955509 0.017511982 -0.038573474 0.0021726654 -0.01840573 0.060082994 -0.077727325 -0.04147687
이나 -0.044400264 -0.04728908 -0.018990468 0.03640842 -0.073826015 -0.059870806 -0.00093181315 -0.025549825 -0.026696227 0.052016642 -0.070620336 0.09248861 -0.0050562597 0.0062743947 -0.01854848 -0.05560293
ㅎㅎ 0.0071477983 0.08202316 0.034427784 -0.09289032 0.06270782 0.04103268 -0.061908755 -0.022081934 0.08858729 -0.06434799 0.1252928 -0.09118274 0.052580953 0.024554405 -0.18089801 0.066251256
요 -0.05586491 0.001122501 0.027303046 -0.025579035 0.052820437 -2.1179148e-06 -0.12963803 -0.08729933 0.006116433 -0.07344113 0.016372668 -0.10386537 0.044001225 0.079457626 -0.02531011 -0.029438598
저 -0.01187748 -0.006520769 0.099580124 0.0192946 -0.04209837 -0.010877567 0.012459775 -0.0015916419 0.0522331 -0.06684676 -0.015190714 -0.010036196 0.062307525 -0.015333984 0.011223287 -0.07606187
재 0.07954331 -0.0031440114 0.022633376 -0.0730056 0.040460084 0.083820075 -0.053936034 -0.07973323 -0.010208344 0.0008320397 0.08881413 -0.080099165 -0.008301278 0.04753308 -0.061360065 -0.098700315
꼭 0.15714273 0.07873393 0.088932455 -0.045232452 0.1567023 0.07067573 -0.09077326 -0.036057133 0.11566025 -0.065846 0.05778708 -0.04119889 0.0996024 -0.115406886 -0.11534873 0.064981356
랑 -0.0023305304 -0.035201114 -0.025284218 0.012154024 -0.017930219 -0.0766001 0.014017546 0.06944734 0.052460272 0.04338331 0.029216941 -0.05245861 0.006005482 0.02917174 -0.028245369 -0.022832762
며 0.01756257 -0.02331431 0.023532381 -0.052517843 0.0719409 -0.0049097645 -0.014233586 -0.023179289 0.037426908 -0.052144106 -0.014838791 -0.029449496 0.017290581 -0.02110339 0.03258711 -0.04604986
현실 0.017017823 0.02404198 0.09202392 -0.0457577 -0.06837697 0.055581 -0.02905425 -0.0526329 0.04521278 0.02547032 0.023481393 0.029954877 0.108115226 -0.019645572 -0.044479687 -0.069451705
긴 -0.0042737573 -0.02493657 -0.08309662 0.024656903 0.013547873 -0.04948213 0.022287495 0.0028560774 0.02632963 0.018426025 0.013092172 0.18305078 0.02390847 -0.0059044305 0.017771423 -0.05703838
ㅡㅡ -0.08226248 -0.08973928 -0.11767574 0.11436965 -0.052286193 -0.075526066 0.08638375 0.013912004 -0.023772376 0.0048659393 -0.06104934 -0.0039002104 -0.06699929 0.101335004 0.07694742 -0.0328807
무슨 -0.0046123546 -0.095033884 -0.047117833 -0.0061512953 -0.019766662 0.019111695 0.11082454 0.03894143 -0.10110559 0.10237146 -0.09769896 0.055406373 -0.030540116 0.025218597 -0.018889686 -0.09276705
내내 -0.005793646 -0.034819026 0.060720146 -0.016212752 0.096985176 0.012557903 0.009421312 0.005562563 -0.0009970198 -0.021791067 -0.080191 0.034746006 0.015831456 0.012789349 0.05735802 0.05602703
결말 0.03061051 -0.027727023 -0.052553605 0.0059335222 -0.0025804795 0.039673377 0.023225037 -0.040385265 0.03298675 0.031212399 0.010273801 0.028360682 0.025970101 0.031001026 -0.017548088 -0.05665448
죽 -0.014828116 -0.037398607 -0.040359784 0.038825907 -0.024571635 -0.034256116 0.026642896 0.018539758 -0.037599523 -0.0062143547 0.027851852 -0.06661798 -0.009429021 0.07021867 -0.04485462 0.02039291
남자 0.047984462 -0.023489933 0.006188081 -0.03262645 0.05672258 0.0060221488 -0.007667403 0.038025767 0.008061099 0.0014102433 -0.027755244 -0.12928331 -0.014512234 0.0215172 0.0521696 0.028296918
세요 -0.047476377 -0.05913948 -0.030086124 0.043349694 0.05308412 -0.020599376 0.05873903 0.00024703232 -0.053797044 -0.05811992 0.036397304 -0.070949845 0.044073306 0.06404542 0.09973187 -0.006000397
전개 -0.05359142 -0.056073748 -0.0010791875 0.07224015 0.027861096 -0.046528973 0.06619931 0.054326516 -0.0731728 0.054231208 -0.039533943 -0.08601777 -0.013005083 0.054015107 0.08024193 0.022078238
마음 0.0026712362 0.12068688 0.038711783 -0.049855996 -0.08687202 0.0678905 -0.06599802 0.009912871 0.07108804 -0.10577912 0.07589584 -0.040754274 0.10384807 0.03555233 -0.05760063 -0.024151912
소재 -0.05375212 -0.072272904 -0.08289647 0.15362008 -0.0050874264 -0.11528535 0.07634344 0.011818762 0.025488073 -0.017148424 -0.050874043 -0.013041024 -0.054452963 0.008865331 -0.055871703 0.031288967
속 -0.032485627 -0.0074370885 -0.009423993 -0.0066429675 -0.07612163 0.020843316 0.04052086 -0.032416355 -0.014608926 0.010501382 0.05137713 0.028470784 0.049482178 -0.07418735 -0.02898288 0.026434647
공포 -0.034413952 0.022643225 -0.0065358607 0.08334411 0.014446325 -0.016592724 -0.008074894 0.028742557 -0.057461504 -0.06203703 -0.013678832 0.0088903345 -0.036047306 0.09324093 0.007939458 0.008533495
아서 0.040560715 -0.032813963 0.044664983 -0.020635353 0.058453333 -0.056880943 0.031124067 -0.013746947 0.03875532 -0.10568179 -0.08119252 0.014756719 -0.04942363 0.005279026 0.027431311 -0.097631134
다른 0.021056492 0.040813483 -0.07836044 -0.025875637 -0.044094197 -0.05417798 -0.027574772 0.008477889 0.06532503 0.061520427 0.08696095 0.06676917 0.013042714 -0.13204995 -0.0013466184 -0.02682204
씨 0.016929084 0.017945996 -0.013880982 0.015062788 0.024345664 0.020006957 0.01616622 0.012653807 -0.016613329 0.03609106 -0.028292317 0.0034595947 0.025163442 -0.05786646 -0.015579202 0.023578934
인생 0.1318905 0.042222105 0.0005841393 -0.07609291 0.002168599 0.029616745 -0.022209471 -0.023219513 0.07286545 0.038951445 0.07434647 0.01583142 0.10187826 0.036237992 -0.08986577 -0.057356708
~~ -0.02032228 -0.027727291 0.011186597 -0.041442033 0.04575567 0.023238905 -0.024020353 -0.058894243 -0.09063264 -0.017380152 0.038265288 -0.01835854 -6.42942e-05 0.0032722896 0.040660325 -0.04133731
짜증 -0.13637388 -0.15903504 -0.098711744 0.06294084 -0.103749685 -0.09710954 0.07824435 0.10543343 -0.08543658 0.11566113 -0.08116311 0.14229381 -0.13284506 0.059088115 0.02670541 0.019049961
짱 0.043961607 0.050231624 0.16629675 -0.10697031 0.2636476 0.12377439 -0.13269253 -0.1122812 0.043663863 -0.19576184 0.080007136 -0.07168544 0.091592394 0.08314811 -0.028868204 -0.08574044
뿐 -0.023499133 -0.039876316 0.006953684 0.021810915 -0.07872845 -0.024135336 0.058707524 0.05449831 -0.08532793 -0.010510894 -0.034552757 0.035491705 0.015025167 -0.019738942 0.059715822 -0.03208347
은데 0.057522498 -0.010593355 0.008776962 -0.01932746 0.11857433 0.0056221713 -0.015127209 0.042767044 -0.029793104 0.013330856 -0.030582303 0.067303404 -0.029776335 0.008103034 -0.007848172 0.0016787136
별 -0.06999303 0.012237956 0.11672626 0.001973083 -0.00649274 -0.023209164 -0.023235617 0.04717815 -0.060527045 -0.054806404 -0.08116823 0.061070733 -0.07772463 -0.0802336 0.06774488 0.0700558
아요 0.0682205 -0.01168029 0.028881632 -0.036011733 -0.06172711 0.05698075 -0.08007015 -0.059042454 -0.086189784 0.044362564 0.074678905 -0.042012468 0.0801123 0.11008798 0.041024685 -0.0036554348
유치 -0.11635026 -0.05640313 -0.055677135 0.092471085 -0.027690278 -0.11596642 0.013574827 0.08522777 -0.10389146 0.015011162 -0.029800378 0.113876216 -0.17354518 -0.01121707 0.08643115 0.108085096
가장 0.025921924 0.058492757 0.059418093 -0.033163503 0.10107917 -0.07122572 -0.07281042 -0.025944196 0.01755197 -0.09385321 -0.00035160553 -0.0033220723 -0.029906556 0.080489516 0.046516202 0.05626448
필요 0.026136536 0.08372981 0.017585503 -0.04269524 0.11605649 0.17796384 -0.01123484 -0.02153036 0.12707503 0.13578272 0.14393298 -0.062042885 0.06349695 0.12586783 -0.044716384 -0.10801721
음악 0.033320878 0.06665835 0.057940852 -0.03889865 -0.033067733 0.047998667 -0.05486019 -0.09240617 0.116984464 0.016240466 0.066350676 0.008796844 0.050957303 -0.00563136 -0.07994718 -0.03860465
) 0.016710069 0.0906929 0.02955811 -0.094435126 -0.0059989453 0.015975561 0.013567936 -0.007828266 -0.058127075 -0.0039161295 -0.004494428 -0.064554945 0.031489175 0.010835585 0.028358644 0.073505156
일본 0.0025974796 0.010479971 -0.0313485 -0.008062347 -0.08475465 -0.047562458 0.014981608 -0.00039391388 -0.005472495 0.085862875 0.03982464 -0.00984716 -0.041793097 0.023486892 -0.043343756 -0.00079031126
낮 0.17635916 0.10164812 0.12432268 -0.12734368 0.15156437 0.09188196 -0.09557938 -0.08743132 0.048414815 -0.11168059 0.055221416 -0.13686389 0.112428255 -0.07036584 -0.05523004 0.045762144
아이 0.06094773 0.024994092 -0.021511447 0.047209352 -0.030521115 -0.0013735156 -0.06882599 -0.003334318 0.0031041005 -0.05560301 -0.008867557 0.031693056 0.0153647205 -0.039093837 0.012703904 0.018986685
;; -0.079286106 -0.024042534 -0.008962807 0.0009125468 0.007905265 -0.056499824 0.065380804 0.021017624 -0.06685475 0.037912596 0.009134759 0.004783888 0.027485061 -0.0598792 0.05308554 0.09694651
오 0.045116767 0.078572914 0.01544033 2.1061278e-06 0.0018242204 0.037548974 0.020961305 -0.020181155 -0.011525157 0.028812218 -0.045805607 0.055595122 0.031416904 -0.006853184 0.00881559 -0.0043792916
반전 0.056479793 0.00015280994 0.04452818 -0.021803115 0.12248986 -0.05731519 -0.038116604 -0.065687135 0.05922585 -0.056196123 0.04369427 -0.00963839 0.028507285 -0.02039081 0.017729525 0.0019191074
수준 -0.073745325 -0.0293968 -0.041225255 0.11776107 -0.12738045 -0.012643895 0.06337548 0.039981123 -0.083799504 0.04135633 -0.0071544102 0.0887039 -0.048797045 0.088654615 -0.0011883635 -0.00068302837
다니 -0.032261264 0.02037462 -0.0018200608 -0.01763436 -0.040820427 0.04223996 -0.0011020725 -0.00759067 -0.0057097236 0.026287027 -0.016360112 -0.0011681538 -0.018078756 0.08428598 0.09588074 -0.0037720555
웃 -0.024365729 0.052048516 0.082663015 -0.022573935 0.035763703 0.020571891 -0.01679931 0.012768102 0.06178155 0.024195092 0.037049934 0.0732643 -0.02551703 -0.046219334 0.03267501 -0.11871316
매력 0.038784225 0.032535832 0.1067776 -0.025994478 0.086206935 0.010501892 -0.06696614 -0.08801211 0.09698628 -0.1184037 0.04058546 -0.17105661 0.05237688 0.049174614 -0.056165818 0.04890052
맞 -0.056546092 -0.055599682 -0.042505313 0.012423327 0.021482097 0.014720085 0.027347159 0.0037864242 0.002171652 0.027252775 -0.010516829 0.024122229 -0.07105677 0.091116525 0.05774646 0.072879724
인지 0.019135637 -0.06364501 -0.04779501 0.08506273 -0.026356097 0.053469103 -0.0046333456 0.016406009 -0.061127704 0.038808577 -0.001488171 -0.010276336 0.028578473 0.04001226 -0.022207096 -0.040850725
가슴 0.03774507 0.10050198 0.13038136 -0.060660567 -0.014417758 0.030147875 -0.036495898 -0.076520555 0.086848944 -0.123233296 0.11768902 -0.054582994 0.13337986 -0.0362271 -0.12965083 0.094194524
없이 -0.005580807 0.040712688 -0.038212493 -0.040271677 -0.016572976 -0.07715361 -0.017884538 -0.02703558 0.036731437 -0.0014277628 -0.08099798 0.040992428 0.00059913204 -0.04118727 0.018143503 0.002594109
원작 -0.042184696 -0.022365756 -0.06676768 0.008435573 -0.035893947 -0.08339728 0.09305261 0.01392292 0.0026923611 0.062186692 -0.041974526 0.040245 -0.03385811 -0.0015144856 -0.056327008 0.033848085
ㄷ -0.045723666 0.021164495 0.040226325 0.033659738 0.020624721 0.040564794 -0.031187868 0.0014973655 0.005791809 0.014249768 0.08005074 0.028536938 0.0039319205 -0.025574781 -0.016983142 -0.028514106
인간 0.022954816 0.034777418 0.055686012 -0.070324 0.030083109 0.029698132 -0.018065108 0.0038361177 0.0926439 -0.06674412 0.05980457 -0.0136006065 0.05632861 0.005844919 0.022992471 -0.08128334
데 0.0006276253 -0.013431144 0.035438485 0.0058400966 0.027708424 0.007092414 -0.025918214 0.013807496 -0.010103018 0.00915409 -0.025246875 0.06582002 0.029431826 -0.049301278 0.024326824 -0.026852658
굿 0.121029615 0.06614099 0.17904347 -0.1249975 0.08380334 0.08402123 -0.14197646 -0.11250613 0.05263725 -0.118605584 0.0811906 -0.080874085 0.0977326 0.10268184 -0.10861668 -0.03101298
ㅠ -9.718978e-05 -0.022243345 -0.024619339 -0.015926098 0.031416178 0.014939433 -0.04713735 -0.05843358 -0.019219276 -0.019093342 0.04609164 -0.007167052 -0.020130198 0.063007414 -0.056761086 -0.042658087
높 -0.030502023 -0.05120332 -0.10797848 0.017782446 -0.015999397 -0.03848454 0.0695642 0.08966119 -0.019835165 0.031863503 -0.088098794 0.050605845 -0.09360768 -0.0678434 -0.0076126596 0.111516014
밋 0.110279575 0.0858662 0.0649276 -0.040748596 0.014165127 0.048610322 -0.08734807 -0.07603959 0.093623385 -0.102035835 0.034919295 -0.056185275 0.14804666 -0.050455306 -0.080512226 0.07273378
( 0.017301045 -0.047398984 -0.070998594 -0.07345641 -0.04089196 0.00090975687 0.006435133 0.03601736 -0.015432153 0.046687666 -0.017291594 0.078012265 0.04366054 0.0017391545 0.035384532 -0.005341195
만드 0.0053756107 0.0073180734 -0.039749354 0.012651954 0.06153751 -0.021943018 0.05205734 -0.020623311 -0.017368041 -0.036064323 -0.05612043 -0.044063363 0.019935597 0.12515207 0.038682137 -0.019692536
급 -0.019304333 -0.020288408 0.08820339 0.047315273 0.01009147 -0.041677564 0.042642694 0.0105602015 0.010255396 -0.075451635 0.033769693 -0.093567066 0.003872522 -0.06670743 -0.040622186 0.025357911
눈물 0.11262309 0.10213659 0.07230027 -0.032095578 0.09148291 0.087315485 -0.13956602 -0.14497799 0.114622235 -0.007935544 0.09372884 -0.070736386 0.07530625 -0.010001209 -0.10232755 0.007564336
보여 -0.0074368524 -0.052641537 0.05187108 0.058439817 0.12465952 -0.044745542 0.015860038 0.014892012 -0.017593503 -0.0028909103 0.035768792 -0.028714934 -0.039337475 0.018464588 0.019979047 -0.008788966
준 -0.06315077 0.0151722105 -0.0135529665 0.068922 0.04741935 -0.043360516 -0.019093042 -0.07667266 0.024882762 -0.05153127 0.074301824 -0.013561952 0.040709376 -0.017720506 -0.13818108 -0.081205636
찍 -0.04643543 -0.03669125 -0.05649575 0.051571503 -0.06530377 -0.051156923 0.08297609 -0.042494778 -0.04918516 -0.013931995 -0.09272718 -0.17866361 -0.010078699 0.011375064 0.053841464 -0.027854294
인가 -0.014238214 0.012043556 -0.03785325 0.01414649 -0.10026829 0.018509666 0.04693478 0.020139908 -0.073090956 0.04301953 0.003409823 0.030899523 0.007629649 -0.022193491 0.101797774 -0.057397746
노 -0.15001649 -0.11441891 -0.15090345 0.09130525 -0.07056829 -0.14423013 0.111818716 0.13257954 -0.066684075 0.13617232 -0.13211748 0.016462179 -0.15940109 0.14867382 0.039962627 -0.016661663
을까 0.004917144 0.062452637 0.021253323 0.048293836 0.02553051 -0.057463888 0.0019033304 -0.0118961735 0.07360095 0.0631272 -0.011821872 0.0759083 -0.048232127 -0.010745751 -0.06699708 0.07347123
용 -0.032686006 -0.018750522 0.0020461963 0.08615121 -0.00010899978 -0.051720787 0.07142326 0.07787625 -0.058422964 -0.0145269465 -0.06267782 -0.061955366 0.013506525 0.06388753 0.010167419 0.029895552
코미디 -0.018685862 -0.040156886 -0.02064571 -0.058717452 -0.0063115964 0.06346585 0.0021860774 0.030500293 -0.05298118 0.02715654 -0.012175095 0.048727278 -0.044877294 0.07689313 0.00444218 -0.068254314
마 -0.046686124 -0.03602527 -0.02304052 0.027054988 -0.009014815 -0.02528564 0.0385821 0.053175304 0.018810162 0.0041799042 0.0010820642 -0.00060459273 -0.07078362 -0.019852323 0.03598182 0.11428256
화 -0.031385902 -0.03771916 -0.11623791 0.059009206 -0.042139642 0.019439736 0.076082036 -0.033335768 0.0020242112 -0.014242517 0.0042008245 -0.011439777 -0.08408898 -0.024957158 0.030274909 0.050601397
신 -0.034719653 -0.02391315 -0.03391577 -0.06876156 -0.026166044 0.061805822 -0.048090536 -0.053909026 -0.016452152 0.031616703 0.07160768 0.021023907 -0.04467494 0.054600447 -0.042199485 -0.05093621
모든 -0.002698999 0.06773962 0.06977981 -0.038138896 0.0137258405 0.061062157 -0.021854898 -0.05478254 0.01789526 -0.0814791 0.06857397 -0.014769525 -0.007096775 0.009528214 -0.018515607 0.037709642
쓰 -0.0050362367 -0.07482918 0.015399078 0.003218364 -0.0056547252 0.028212676 0.04444833 -0.0065883077 -0.061974604 0.0361441 -0.012756301 -0.068722144 -0.06138862 0.118424304 0.02193581 -0.0881785
여 -0.030621767 0.024165042 0.041433144 0.036498595 0.018039478 -0.033104584 0.01612411 -0.01301716 -0.019782942 0.011103468 -0.01774946 -0.07665457 0.026658788 -0.0029009292 -0.026715185 0.07036499
5 -0.03863749 0.028674642 0.022904279 -0.009965848 0.068375334 0.012950536 0.017902452 -0.089868024 0.02378465 0.0050330483 0.0037782385 -0.041879516 0.051602434 -0.03450093 -0.07656941 0.04067774
아직 0.085785575 0.08453768 0.004058784 -0.051747892 0.08565903 0.078460224 -0.039421827 -0.019594345 0.0075931526 -0.0064901095 0.008268937 0.1071516 0.04009081 0.021196358 0.05599947 0.048729133
추천 0.0063398853 0.09443991 0.06778226 -0.034408517 0.1257957 0.057495836 -0.110097535 -0.065788604 0.09574386 -0.056753445 0.01399937 -0.09325169 0.029426351 0.1215531 -0.050517384 0.03374205
처럼 -0.030145086 0.04274438 0.03338555 -0.075406946 0.07801471 0.022395477 -0.028724711 0.047763586 -0.020395689 0.018827124 0.0057728216 -0.015216904 -0.01547819 -0.07214729 0.019213393 0.030632878
눈 -0.040122088 -0.04897369 -0.01872293 -0.010109078 -0.010261761 -0.0022149351 0.06889204 0.030123536 0.0048576817 -0.03681229 -0.022578167 0.013736659 0.064100526 0.009064552 -0.01075928 -0.085547276
아닌 -0.036007207 -0.019715054 0.021005256 -0.009373526 -0.10048701 -0.068839684 0.015518369 0.003938936 0.020738011 -0.051789228 -0.09540543 0.01649271 -0.030879382 -0.028705463 0.08863897 -0.04534261
자체 0.03677648 0.0081017455 0.069043115 0.046633527 0.07199084 -0.0473769 0.0044558905 0.006309577 -0.039427597 -0.0014240937 -0.056949105 -0.0632156 -0.042348016 -0.026515203 0.011651253 0.09196136
울 0.15256108 0.03483315 0.051399976 -0.120654576 0.096727744 0.07217197 -0.09264486 -0.044875864 0.086731516 -0.08074973 0.090730675 -0.13611507 0.045898218 0.09195205 0.029562779 -0.06529913
몰입 0.0047778967 0.10486481 0.09619133 -0.059215736 0.025669612 0.01633024 -0.034966044 0.012562328 -0.011242887 -0.12336578 -0.029299282 -0.029824542 0.11466031 -0.09138018 -0.06882983 0.013471352
4 -0.012827694 -0.012247817 -0.009854567 -0.008499475 -0.041064203 -0.008199333 0.005769246 0.06054436 -0.08280524 -0.014013264 -0.040411085 -0.0012814945 -0.038681477 -0.07628918 0.042014185 -0.06327021
대박 0.06884592 0.10427874 0.08083691 -0.09122221 0.06872894 0.02999976 -0.0867438 -0.0758004 0.11709174 -0.15838915 0.094805285 -0.09331354 0.11589897 0.11592378 -0.06863935 -0.04876745
몇 0.021333987 0.033275552 0.02260905 -0.043873165 -0.0191915 0.034982838 -0.016383845 0.0020698446 -0.037904166 0.054041486 0.058310017 0.021989672 -0.021745814 0.0036275806 0.033968348 0.010811166
스럽 0.0036997797 -0.03329873 0.039352585 -0.03466863 0.11520126 -0.02464323 0.0047367415 0.010244447 -0.0053235935 -0.07384796 0.045568265 -0.056479897 -0.004346066 -0.08408485 0.036602117 -0.07683536
실망 -0.072988056 -0.09748437 -0.096242465 0.1901133 -0.05511554 -0.097165495 0.046190616 0.11030195 -0.11263637 0.06427903 -0.019570109 0.10577112 -0.07304304 0.066956766 0.15937455 0.028097877
는다 0.05707246 -0.0069715907 0.062254917 0.07079098 -0.05330574 0.0774705 0.036783017 -0.002918849 0.04363469 -0.015273631 -0.020256633 0.015099436 0.045198344 0.038349696 0.033667974 -0.005638268
대한 -0.0003987096 -0.026242545 -0.017262813 -0.03257236 0.02757773 0.105713 -0.07586883 -0.036162943 0.02248202 0.0038862792 0.09011213 -0.020401485 -0.0147337755 -0.021583958 -0.0077001164 -0.0982607
죠 0.094165586 0.08872529 0.0038600266 0.006282418 0.06767387 -0.028399508 -0.060678523 -0.03618502 0.010103435 0.021914937 0.0036447481 0.03891654 0.06219188 -0.16613978 -0.011369337 -0.029862205
란 0.00058216084 -0.008211819 0.03758679 0.054272152 0.006276076 0.014808202 0.017045837 -0.026647536 0.048272524 -0.056902688 0.003059597 0.051828556 0.0816611 0.038052198 -0.04521468 0.062073037
그런 -0.0306494 -0.037981607 -0.052466337 -0.011749101 -0.098117195 0.07192243 0.045911364 -0.09299283 0.05195738 -0.007004661 0.05493484 0.03506109 0.007841503 0.06329657 0.013055567 -0.020339241
솔직히 -0.07534022 -0.03313956 0.011512289 -0.013199907 -0.047289863 -0.056160226 0.040096935 0.015237658 -0.03244267 0.0410056 -0.047643702 0.057731047 0.003523361 -0.07541915 -0.049519032 0.03258018
캐릭터 -0.038235735 0.053975426 -0.0749614 0.022543507 0.010400155 -0.018727738 0.06098698 0.03499409 -0.012001229 -0.016293898 -0.020564768 -0.038493667 -0.00063638896 0.048446044 0.0029785773 -0.009516398
ㅎ 0.056868386 0.015429883 0.012574288 -0.060748674 0.0061936285 -0.024194866 -0.045678783 -0.11832657 -0.00033813692 -0.07511473 0.05913793 -0.102662794 0.045265608 0.07360303 -0.09213187 -0.044591147
모두 0.03958753 0.06017456 0.14659065 -0.030592902 0.14170837 0.015799614 0.0244853 0.028230641 0.068160675 -0.10958521 -0.013702301 0.021044832 0.058496404 -0.0535856 0.022309218 -0.016547449
아주 -0.027970219 -0.012075674 0.100961454 -0.029931724 0.05165487 -0.010933145 -0.04065412 -0.024984036 -0.041134275 -0.046683498 -0.010593273 -0.110021025 0.047464896 0.05807259 0.008502984 0.00032579122
- -0.030086132 -0.056900848 0.0017025047 0.06764453 -0.052537516 -0.026263935 -0.023092866 -0.012622165 0.01453766 0.076327145 0.057380736 -0.061123688 0.04651488 -0.013826857 -0.04001928 -0.012598973
가족 0.0024349925 0.030354224 0.061901815 -0.06718565 0.011732595 0.0071500367 -0.00066787447 -0.014707306 0.06386579 -0.035620525 0.008295667 0.0153121315 0.07112685 0.0665698 -0.04354848 -0.005610665
여운 0.16960765 0.16363618 0.07806576 -0.14155206 -0.011321781 0.18175371 -0.1025706 -0.20243007 0.03580231 -0.14029221 0.1552264 -0.106509686 0.18001348 -0.010607885 -0.04496438 -0.028415268
건지 0.004249922 -0.084544875 -0.05224147 0.08060892 -0.002719048 -0.09127894 0.053164333 0.045437522 -0.04725288 -0.01766604 -0.07727197 -0.07308324 0.007168866 0.05589642 0.10812473 -0.027937058
전혀 -0.05861343 -0.025331644 -0.15106301 0.08994617 -0.026324393 -0.08083391 0.077446595 0.090642996 -0.012224566 0.08184016 -0.001652664 0.07959199 -0.056817748 0.072874814 0.005403686 0.00909776
연기력 0.0098612225 0.03593916 0.035791043 -0.0052177627 0.047463063 -0.016372953 -0.06317488 -0.026570786 0.00034151657 -0.009862049 -0.013578295 0.02830365 0.06428747 0.033329062 0.08215451 0.094457544
나라 0.024898222 0.006243907 0.017868444 0.0028499388 0.012648311 0.013342509 -0.05610753 0.033945158 0.011504463 0.0479518 -0.058127973 0.022928605 0.05124868 0.006006291 -0.083337665 0.01787924
후 -0.07909875 0.027310949 -0.013850816 0.034103736 0.036451273 0.0067193643 -0.0018674033 0.03568726 0.04264041 -0.0016511092 -0.041850984 0.05435415 -0.011648477 0.03950532 0.04120785 -0.0045502293
될 0.029052809 -0.025505668 -0.053574387 0.047063313 -0.07323412 0.01938314 -0.008697978 0.03128654 -0.05231326 0.037626818 -0.0109748645 -0.018295199 0.013831136 0.018943867 -0.020105151 -0.0339966
다면 -0.016732076 -0.055121716 -0.023873918 -0.011008031 -0.058225177 -0.058906503 -0.0140448185 -0.034883622 -0.016521923 0.015505439 0.077023715 0.009897424 0.03135327 -0.043541063 0.015927061 -0.031509764
뭔가 0.020060925 -0.012296328 -0.0252865 -0.018693589 0.025552865 -0.01785735 0.071902625 -0.018307647 -0.031415764 -0.03103805 0.0023912517 0.010723727 0.017192079 -0.07919191 -0.00266094 -0.06986998
그래도 0.027158175 -0.04942717 0.09692302 -0.03851815 0.080514096 0.08971825 -0.056971826 -0.02078147 -0.07330056 -0.07704039 -0.0015641033 -0.09389918 -0.05999426 -0.027878057 0.017996226 -0.027668426
; -0.0278464 0.020263849 -0.05805469 0.0021344793 -0.0067369016 0.04621444 0.07757015 0.012661405 0.050054792 0.05397806 0.0007421727 0.04985617 0.06340154 0.008059963 0.04828717 0.05774231
시리즈 -0.010536921 0.002025719 0.026571041 -0.003981052 -0.006580153 0.022214124 -0.0809989 -0.0461857 -0.019214422 -0.015327901 0.079326734 -0.030117365 -0.041480232 -0.070729844 -0.06996433 0.059134327
근데 0.06257439 0.085472666 -0.013588324 -0.045385662 -0.069255956 0.05730377 -0.035412703 0.01302066 0.05013076 -0.07875878 0.017492935 -0.05577526 0.06255608 0.036789868 0.034621675 0.011288403
작 -1.3552082e-05 -0.027158719 -0.025510639 0.02050687 -0.0718774 0.046719883 0.025272092 -0.018822324 -0.06501843 0.0120863635 0.032730013 -0.0224737 0.019430878 -0.067849524 0.1343818 -0.14150059
표현 0.121899374 0.029828202 0.058695562 -0.029936478 0.062439885 0.04711876 -0.0700295 -0.038511146 0.013153853 -0.0074776323 0.031779602 -0.02021161 0.12562361 0.10704871 -0.047190685 0.025057662
모습 0.0107998215 0.03483893 0.047160607 -0.042756602 -0.015691867 0.09346766 0.0028498997 -0.04552435 -0.020682521 -0.1273682 0.04550362 -0.06131753 -0.0061480617 0.10063971 -0.012841452 -0.11247676
공감 0.0045924634 0.00071974436 0.012182862 0.043715514 0.104519404 -0.0735315 -0.043653913 -0.051792543 0.0343811 -0.04462783 0.019816486 0.0050341184 0.03920037 -0.0133784115 -0.14389077 -0.016575744
계속 0.057971988 0.032677606 0.15116854 0.018457651 0.09484071 0.040817365 -0.04946027 -0.028979251 0.036255483 -0.03524116 0.06481997 -0.0044392934 -0.0072312327 0.03057561 -0.0064627994 0.00010234698
먹 -0.045346282 -0.02877645 0.018589275 0.058612883 -0.07039762 0.014301988 0.028746543 -0.0153479045 -0.028972212 -0.036378607 0.011639037 0.032993626 -0.029142696 0.057513442 -0.0056321947 -0.020787627
"" -0.013245616 -0.04627051 -0.0024119008 -0.03640148 0.069268994 0.022353457 0.0084564015 -0.010256063 -0.10277635 -0.0060766437 -0.033090334 0.051845394 -0.054993283 0.013244461 0.02629392 -0.0120694805
제목 0.015706936 -0.02492042 0.0061169877 0.039908625 -0.045220185 -0.021657825 -0.009381675 -0.00935116 0.014464029 0.030759063 -0.0052213045 -0.12690036 -0.043145593 0.03852686 0.047261905 -0.06035678
7 0.07891923 0.030395443 0.02745936 -0.06238051 -0.06030269 -0.017875444 -0.057810225 -0.05403208 0.038371522 -0.0859397 0.025060281 -0.027472408 0.042566974 -0.038382456 -0.08497989 0.08580216
이랑 -0.085824326 -0.020135617 -0.044853855 0.016362473 -0.018899782 -0.059289116 0.018692626 0.044065766 0.041281298 0.023166869 -0.026621684 0.028813856 -0.050541908 -0.023215242 0.011723187 -0.08800481
극장 -0.109515145 -0.058447286 -0.05868016 0.02679377 -0.056771617 0.004654608 0.07574631 0.0008626809 0.07482326 -0.0050519537 -0.030263692 0.1126895 0.014708263 -0.014445561 -0.022044066 0.027188623
치 -0.039331574 0.00623366 -0.037147056 -0.015906246 -0.05135563 0.022320146 0.035108857 0.008540423 0.026708659 0.06202875 -0.01589995 0.0851695 -0.053043365 0.011241341 0.0072729746 0.08976418
비 -0.02399355 -0.019071184 -0.056761637 0.050559018 0.003457307 -0.041203022 -0.004099996 0.09128989 -0.009126616 0.0065816287 -0.043432236 0.054971177 -0.082340345 -0.0077155465 0.028987288 -0.012390246
이걸 -0.0827904 -0.021059137 -0.06969752 0.048822682 -0.036892742 -0.078941844 0.08454644 -0.028496603 -0.065778844 0.13488117 -0.02960488 -0.029573806 -0.0098299 0.00075463584 0.056995343 0.22202997
진 -0.03274446 -0.027079104 -0.06689459 -0.10881408 -0.053797383 -0.03940698 -0.047940027 -0.05440755 0.060012806 -0.0044777514 -0.010225889 0.105687134 0.03305346 0.07326986 -0.069287136 0.025628824
바 -0.100066185 -0.03235641 -0.11073496 0.14702448 -0.03000201 -0.05856821 0.027783202 0.11975927 -0.08454311 0.07649211 0.015300408 -0.00070430496 -0.031739756 0.038861904 -0.018753644 -0.13455874
대사 0.018099563 -0.0021775514 -0.0087085385 0.013753839 0.038347937 -0.042482503 0.00253755 0.031263776 -0.025056787 -0.044722814 0.0021277042 0.0046294197 0.030994916 -0.0013219559 0.02596606 -0.06596264
부분 -0.010433837 0.0148778185 0.044546247 0.070915416 -0.051099837 -0.012683251 0.014513029 0.051730353 -0.0072592855 0.019534552 0.019567488 -0.013034599 0.0357605 0.06050127 0.008236744 0.008455439
그렇 -0.04264688 -0.064361684 0.048156716 0.06863305 -0.09548634 0.037655935 0.007158184 0.06491347 0.021184407 -0.055789962 -0.052829094 0.04646623 -0.07229096 0.008680216 0.087745376 -0.04072163
개봉 0.002865439 -0.0059652627 0.0045034676 -0.017996376 -0.062424578 0.04340677 0.09567829 -0.0026891346 -0.048788514 0.03742632 -0.065287225 0.09787403 0.015593925 -0.018148348 0.11279406 0.085167676
0 -0.13346964 -0.06646185 -0.03525763 -0.05058727 0.03740054 -0.07224663 0.06015859 0.10387369 -0.029225146 0.14419633 -0.11759301 0.053992573 -0.047664884 0.056080107 -0.047293086 -0.0639333
OO -0.023207683 -0.047519516 -0.0495528 0.036988445 -0.043541096 0.0071195327 0.036563233 -0.020031173 0.013918731 0.083311394 -0.014190504 0.07861571 -0.08993896 0.024416968 0.06935022 0.071821265
대단 0.048199493 0.010014761 0.03993666 -0.03689834 -0.021723296 0.11304806 -0.026808739 -0.034631472 0.07576879 -0.03268562 0.0379857 -0.11820407 0.036644686 -0.004307596 -0.007079536 -0.09369752
어디 0.0028466298 -0.043013964 -0.020940067 -0.021344645 -0.021030366 -0.06203244 0.027089657 0.06920535 0.0635067 0.043044474 0.026310878 0.027883407 -0.025535751 -0.08357505 -0.05588873 -0.06307733
작가 -0.09367047 0.009496389 -0.07739655 0.05745375 -0.036160182 -0.06438217 0.040150173 0.079552546 -0.08163943 0.046755675 -0.0016436509 -0.054111335 -0.01952343 0.07181145 0.03295781 -0.03773688
된다 0.06094002 0.042766266 0.030094836 -0.04809527 -0.19212794 0.031852596 -0.054667063 -0.02814643 -0.0038794267 -0.033291414 -0.016996158 -0.012958441 0.06287727 -0.020359745 0.06698039 -0.06360015
아쉽 0.013633167 0.009624711 0.04689878 -0.06457539 -0.07524903 0.01848335 -0.0141593395 -0.0025868774 -0.020482976 -0.02096072 0.083055384 0.017887384 -0.027726883 0.024715196 0.09118707 -0.2023874
기분 -0.0549016 -0.031754654 0.04490576 0.024265287 -0.014661256 -0.027813746 -0.02080504 0.04052717 0.004482281 -0.040950805 -0.035098094 0.024224218 -0.029903436 -0.048297707 0.09637259 0.00018931829
제 -0.035955988 -0.044025168 0.019554827 -0.0057964423 0.022607272 -0.048180286 0.013698501 -0.041895386 0.0287861 0.008990832 -0.06118321 -0.008288906 0.029408276 -0.04508086 -0.023974927 0.0808398
진심 -0.00804182 -0.027945468 -0.029081104 -0.04820286 0.06271986 -0.07264993 -0.010925371 -0.028994268 -0.01682384 -0.0397383 -0.012974435 0.059214894 -0.051447786 0.039119486 -0.0011495864 0.096351765
타임 0.0025071255 -0.013315426 -0.046859678 0.0028216706 -0.03417948 0.03851652 0.017773833 0.01791952 0.02331105 -0.0016413912 0.031705588 -0.009528101 -0.013837446 -0.04176472 0.04415516 0.04711475
/ 0.044123817 -0.012982072 -0.045534596 -0.0056021176 0.02394223 -0.013618373 -0.011448962 0.061496664 -0.03393271 -0.00017312939 0.023537088 0.021588048 -0.018799448 -0.08263807 0.0419063 0.07024348
웃기 0.008443933 0.060132846 0.038105343 0.033864133 0.010521919 -0.020480223 0.0072092405 -0.06736236 0.009874957 0.043889776 -0.033769034 -0.18398868 0.014518142 0.056559492 -0.07340831 -0.0015206035
보이 -0.034683034 0.05365923 -0.022109818 -0.008630387 0.055126898 -0.065143675 0.042635925 0.0019602794 -0.011886953 0.005634396 -0.034321107 0.011312251 0.022820057 -0.041020647 -0.047516603 -0.056136806
놓 0.0023650427 -0.0009092111 0.015682213 -0.021358173 -0.077407256 -0.045805827 0.010615205 0.026520137 -0.019413853 -0.004993642 -0.046900734 0.10880759 -0.008881325 -0.045016553 0.061523303 0.053367987
해도 -0.06202622 -0.07081407 0.042692944 -0.020791702 -0.019456413 -0.021888241 0.04150283 -0.018681016 0.03019304 0.019442115 -0.018657662 0.13960412 -0.04355314 0.08112754 0.03328426 -0.008215633
이제 -0.07978036 -0.046845216 0.034951415 0.053139288 0.036656056 -0.006837042 -0.0626074 0.08035195 -0.050059043 -0.005303687 0.029941553 0.060168378 -0.073784016 -0.009131078 0.07117791 0.05585493
물 0.018008443 -0.020564782 -0.02033835 0.017288871 -0.03853864 0.03182149 0.099299744 0.035178337 -0.013904612 -0.0010894879 -0.050104514 0.02734817 -0.0003144748 -0.011281309 -0.047042098 0.027641116
봐야 0.075691745 -0.0057885097 0.043308582 -0.059156086 -0.054935392 0.12445396 -0.10500365 -0.07834118 -0.012795262 0.020554855 0.067316815 -0.07892458 0.059806336 0.06394411 -0.0050230445 -0.12887484
막장 -0.06461325 -0.09124378 -0.10183514 0.09492316 -0.10258616 -0.021515558 0.116205744 0.031077733 -0.034868587 0.09642859 -0.070763566 0.12456281 -0.069227904 0.048628647 0.115773655 0.025317306
삶 0.07435887 0.04005293 0.013268911 -0.099245645 -0.07540941 0.036166914 -0.1054445 -0.10432714 0.11640468 -0.08935908 0.11236092 0.06906896 0.03225583 0.016757298 -0.0400134 -0.010307139
친구 -0.046414517 -0.017564591 0.008843827 -0.0041824803 0.010770184 -0.00036867222 -0.01124282 0.013826604 0.047365054 0.023021 -0.035400897 0.007292032 0.0018431912 0.057803392 -0.019037837 -0.022345273
잔잔 0.13779068 0.039994556 0.017954154 0.011535884 -0.028826106 0.030984676 0.004527844 -0.06744108 0.06838133 -0.057464633 0.03659759 0.03979475 0.047565576 -0.0076245265 -0.010399637 -0.041656166
조금 0.03548698 0.054190382 -0.047745503 -0.023629062 -0.031240404 0.098954506 -0.0222025 0.024171406 0.117328525 0.07885204 0.032845944 0.03324179 0.014982133 -0.060966283 -0.017758545 0.035456307
씬 -0.022890437 -0.015536119 0.014311785 0.03476699 0.016339395 0.062065985 -0.014345872 0.005523757 0.0046130377 0.0036354791 0.040337417 -0.020379175 -0.034337707 -0.014141639 -0.023218475 -0.03613585
딱 -0.03956816 -0.07211097 -0.011100473 0.030474754 -0.0375188 -0.012135057 0.03072871 0.049261663 -0.0062505957 0.022098811 -0.07844729 -0.046996206 -0.067118764 -0.007144281 -0.018724205 -0.07331476
영상 -0.010601143 0.016308911 -0.0063796453 0.035165474 0.099263184 0.028750248 -0.009999256 0.012482801 -0.013727507 0.023566997 -0.010996414 0.028188098 -0.017853618 -0.11388284 -0.0030066217 -0.06443182
억지 -0.077544585 -0.07629461 -0.10328285 0.1745673 -0.05497814 -0.11391511 -0.001961648 0.14806676 -0.13622898 0.1317346 -0.074947104 0.035422616 -0.050682187 0.06591631 0.072283916 0.03248154
찾 -0.036239382 0.029020939 0.03697714 0.05595259 0.06904571 0.03975817 0.029972281 0.015724445 0.100435756 -0.02870916 0.02875235 0.016214643 -0.0059245517 0.013832287 -0.017215801 -0.018484794
요즘 0.09491086 0.052889153 0.024101222 -0.10247908 0.08789229 0.041476566 -0.054825358 -0.12808532 0.13461815 -0.051641542 0.09543962 -0.030583914 0.023278862 0.062003102 -0.0777776 -0.09594349
같이 0.06965392 0.050922085 -0.028002664 -0.015350403 0.03419394 -0.04695374 -0.021118857 0.014910606 -0.008558617 0.046465486 -0.026543127 -0.027083298 -0.058718897 -0.04501617 0.0030917602 -0.049868148
중간 -0.0715008 0.014739955 -0.08065111 0.09451613 -0.03625896 -0.038519695 0.03675934 0.0071384795 0.01815191 0.0033472278 -0.050364573 -0.01691983 0.034565996 0.030635571 -0.046520915 -0.057755206
" 0.04951187 -0.03351547 -0.028628593 -0.049299337 0.03599111 0.021416672 -0.017006246 0.0401057 -0.054603234 0.010757502 -0.054058656 -0.08109709 -0.04216771 -0.18515241 -0.009615124 0.033585113
구 -0.030666657 0.033089414 0.015322319 -0.0075789834 -0.020540537 0.021626435 0.040385354 -0.041923735 0.04257794 -0.002717211 -0.0015728141 -0.09110168 -0.0141426455 -0.038188327 -0.07027052 0.023914898
라도 0.009062196 -0.009968739 -0.04245747 -0.03607149 0.001810386 -0.049734265 0.0706168 0.062817104 0.017348116 0.014855918 0.015289846 0.044059426 -0.05335334 0.022138681 0.006426083 0.036690205
스릴러 0.014101906 -0.0016548744 0.061189543 0.025990536 0.019695012 -0.023404254 -0.020055994 -0.053170677 -0.023031833 -0.07752209 -0.028817328 -0.06873306 0.02806855 0.021847567 0.08815476 -0.030841121
가지 0.056904484 0.00028972462 -0.0033927364 0.03971468 0.039571673 0.010409502 0.015493179 0.024806876 -0.065708525 -0.022855826 -0.0061381985 -0.11010657 0.0046918923 -0.03377879 -0.030305672 0.12992485
8 0.074808486 0.07530712 0.0698955 -0.06143253 0.04804093 0.052698083 0.010900994 -0.046782706 0.102106 0.0068809823 0.023852807 -0.033507682 0.06909526 -0.035391625 -0.12561679 -0.030596185
믿 -0.009308324 0.01825788 0.039635733 -0.043629363 0.014032342 0.06620211 -0.03373155 -0.016218005 0.028914489 -0.12313151 0.06300056 0.0579944 -0.0032398796 0.047917157 0.014441777 -0.0619687
싫 -0.04391886 -0.08701854 -0.011989944 0.018562563 -0.056847617 -0.07181057 -0.007870315 0.071271196 -0.07866458 0.087232016 -0.04659895 0.10403374 -0.047735155 -0.08271819 0.12964146 0.06506353
.... -0.053935103 -0.036315683 -0.03190911 0.022440137 -0.0012571544 -0.019434033 0.0452118 0.01906425 -0.05855311 0.037980538 -0.04904387 -0.039727025 0.03406143 0.030134225 -0.03400243 0.08652601
나왔 -0.00012667329 -0.028535165 0.01702457 -0.014193342 -0.012361267 -0.008954268 -0.052656557 0.028508916 -0.01897802 0.020199008 -0.007994419 0.045211088 -0.010196235 -0.10608693 0.12807088 -0.05920436
아까운 -0.06692185 -0.048632223 -0.043407217 0.11985387 -0.0852347 -0.084715866 0.04673712 0.10801394 -0.110602185 0.03992916 -0.0041072518 -0.046450917 -0.08570412 0.0689428 0.13897629 0.13156839
긴장감 0.09959562 0.056104712 0.063883066 -0.020334061 0.15096809 -0.041435 -0.014854543 -0.03807212 -0.011642616 -0.19445062 -0.057293463 0.015104847 0.07031376 0.008283814 0.029559037 -0.0035145925
점수 -0.011816517 0.017822038 -0.0062218024 -0.019232642 -0.05614194 -0.010720447 0.02224632 -0.05105062 0.04152087 0.064273015 -0.071866915 0.10452782 -0.044003755 0.0112995505 0.02968605 0.07904281
개인 0.03647109 0.01490899 0.038300186 0.0012068092 -0.027222326 -0.018113181 0.03154267 0.03885056 0.034751743 0.048791785 0.02774445 -0.026660072 0.032473564 0.089452684 0.024046654 0.026155502
제대로 -0.021823231 0.019378942 -0.02464569 -0.0033618622 0.06328441 0.014161483 -0.029241916 -0.0009266338 0.054227397 -0.12451693 0.0083027985 -0.11254665 -0.0141248 0.043578316 -0.052552976 -0.06401016
부족 -0.11640233 -0.08086375 -0.085421406 0.037557453 -0.09299273 -0.010943833 0.061495602 -0.022903841 0.012927975 0.040939976 -0.019869087 0.043201678 0.007740855 -0.035984438 0.07862168 0.08325369
이유 0.0034138898 -0.031959124 -0.05655818 0.03201898 -0.0059551806 -0.06852242 -0.034979314 0.039212015 0.03653243 -0.002023018 -0.005631093 0.049563505 -0.014784023 -0.04231355 -0.033316355 -0.11749953
노래 -0.005314623 0.04046503 -0.031995572 -0.027308965 -0.04214872 0.03582101 -0.038228072 -0.0135064535 0.05811532 0.1313543 -0.003814982 -0.04514008 -0.05950635 -0.015406527 -0.10510679 -0.11439565
만큼 0.12346448 -0.0011877663 0.089127876 -0.0362915 0.046303127 0.013883129 -0.0008973504 -0.05649353 0.0025211538 -0.022177802 0.02669022 -0.028366195 -0.0038336434 -0.012199758 -0.028664691 0.023966812
라면 0.045483075 0.05542183 -0.0017618896 -0.054733183 -0.001932292 0.008618401 -0.0022682964 -0.008743849 0.011162923 0.03518768 -0.026359823 -0.021457307 -0.004860008 -0.013048353 -0.004316007 -0.0017260588
시작 0.005855919 0.013502213 -0.048683796 0.022805713 0.040358886 0.025103496 0.0042825514 0.053123407 -0.031462062 0.05404015 -0.021460444 -0.044868127 0.005637964 -0.06121599 -0.0890423 0.006350649
구나 -0.037909605 0.013475428 0.013658004 0.06785951 -0.036713485 0.055969946 0.042073023 0.03199552 0.038856532 0.021207016 -0.005495427 0.007901723 -0.02104466 0.044788584 0.048505645 -0.0111406455
잇 0.04850125 0.07058601 0.02916205 -0.019786313 0.08458273 0.050519962 -0.07551985 -0.034155905 0.008059604 -0.028380308 -0.007521524 -0.08315954 0.032207392 0.05413423 -0.018874314 0.053878993
특히 0.11274489 0.054842677 0.010306646 -0.05581136 0.009223839 0.034743074 -0.072350234 -0.012926642 0.03081819 -0.08011478 0.032783933 0.0065415 0.030553099 -0.0651687 0.013152875 -0.0384971
한테 0.03994758 -0.034803055 0.03852887 -0.024230402 -0.03237084 -0.020480098 -0.044824533 0.08724321 -0.014066261 0.038267057 -0.03811824 -0.0045829313 -0.0294554 0.029335536 0.007980119 0.010598525
날 0.08645858 0.070316896 -0.05566306 -0.0091176815 -0.05036202 -0.0067193834 0.0054714945 0.0068604928 0.074739225 -0.031080851 -0.033111617 0.04375931 0.1000285 -0.064872354 -0.0126757175 -0.020287914
려고 -0.01600756 -0.06378419 -0.041162074 -0.041177645 -0.022763727 0.010739593 0.08259167 0.0055608237 -0.07340189 0.030475726 -0.065682076 0.02443864 -0.08583117 0.036654662 0.10623005 -0.051047552
제일 0.005982018 0.01746811 0.07862652 -0.0007867214 -0.014131101 -0.003305648 -0.045666512 -0.024857497 -0.04326167 -0.04014829 0.0004935362 -0.008767152 0.0019320849 0.022128973 0.028561493 -0.036977682
아름다운 0.115543544 0.10055947 0.11890698 -0.100532874 0.09820699 0.055268902 -0.1435637 -0.1286967 0.07566948 -0.102845356 0.052997712 -0.018018771 0.0542854 0.14437304 -0.11549333 0.048996422
시대 0.08698045 0.00047012488 0.0052600238 0.024312003 0.039161634 -0.028017491 0.005180481 0.038560905 0.017055403 -0.03434671 -0.038253326 -0.00973599 -0.027692284 -0.08348952 0.002178804 0.05778742
ㅜㅜ 0.027112653 0.026586909 -0.02114396 -0.014047582 0.016584178 -0.009466753 -0.056440923 -0.09538744 0.05237039 -0.023750938 -0.025576362 -0.08370487 0.058190577 0.031844173 -0.066694684 0.038650833
어떻게 -0.048478022 -0.001070339 0.006941138 0.04586454 -0.01885504 -0.021476429 0.009894047 -0.057881676 0.05063665 0.007175086 0.04083367 0.027741777 -0.003373577 0.033463545 0.028210562 0.095731564
엔딩 0.0077786497 -0.030003708 0.008263859 -0.016844187 0.007374523 0.021701114 -0.06768541 -0.010126023 -0.023449607 0.0046569305 0.038290255 -0.014939697 0.0026621448 -0.02611706 0.022694677 0.022806227
당시 0.073739484 -0.025040712 0.07924848 0.05296464 0.04894797 -0.013941336 -0.014704353 -0.038325943 -0.066890664 0.015049855 0.01686058 -0.09548217 -0.04963695 -0.03649491 0.0441091 0.0033497633
하지만 -0.028477151 0.06211694 -0.019438414 0.029156605 -0.04171753 -0.07112618 0.021120844 0.013450949 0.08569507 0.0114030065 0.037753675 -0.033172973 0.009835434 0.025482733 -0.006061821 -0.01695693
나름 -0.024641177 0.047215562 0.00980308 -0.011745048 -0.034415483 0.08535262 -0.09604316 -0.0011224393 -0.063770555 -0.097601384 0.06458778 0.013100922 -0.0066268006 -0.046764992 -0.11725445 -0.040094487
봐 -0.045192566 -0.03550066 -0.04940229 -0.040548645 -0.009361822 0.0016139798 0.0074831787 -0.025850767 -0.031354673 0.09217095 0.042025577 -0.015794193 -0.005310817 0.040641595 -0.012906936 -0.10557504
무섭 0.0012762346 0.09880627 0.078473255 0.05605249 0.011356642 -0.049725138 -0.009645598 -0.05668028 0.008360029 0.01832713 -0.008737246 -0.07555593 0.007706228 0.06553378 -0.05780139 -0.049215235
나온 -0.019744337 0.02499585 -0.016658502 0.04260284 0.0019675614 -0.04774252 0.03977994 -0.0028483805 0.017554719 -0.010367864 0.011146771 0.026899701 -0.04775851 -0.028586242 -0.011751962 0.03691373
명 -0.048712593 0.02106903 0.009639971 0.012081331 0.008624072 -0.05145926 0.046530493 0.014390083 -0.0004671381 -0.0034007155 -0.01981789 -0.032826886 0.0013736318 -0.07202529 -0.032660015 0.06626249
사 0.03456938 -0.0014037107 0.090986155 -0.046939578 0.113958955 -0.034550756 0.009505144 -0.061128836 -0.0041965484 -0.0042732954 0.01920589 0.08181682 0.066177666 0.028289452 0.0076646474 -0.054317985
니까 -0.010387973 0.020372348 0.011061892 -0.14308414 0.07870656 0.05018848 -0.03710941 0.032041553 0.053053655 0.018132987 0.008733465 -0.0029645676 0.028908093 0.0059621325 -0.011317143 -0.086203344
오랜만 0.06562741 0.051548094 0.07593587 -0.010084349 -0.016698198 0.039230186 -0.051699918 0.017681954 0.091569304 -0.06892545 0.023819007 0.020537414 0.08257433 -0.074428126 -0.024647787 0.10096815
이것 -0.010550625 0.008098434 0.011228516 0.0066625117 0.011434359 -0.054574985 0.029666243 0.040437274 -0.041067738 -0.034543607 -0.061159898 -0.011505184 -0.06159506 -0.049581967 0.006858901 0.026330724
해요 0.042917963 0.04168168 0.009735914 -0.023353599 0.056527555 0.07292842 -0.036213234 -0.067671046 0.05294048 -0.026275707 0.027976383 -0.13903776 0.017496686 -0.028907452 -0.027732912 0.019580634
9 0.042280965 0.020683462 0.029552888 -0.10154745 0.012003742 0.08453855 -0.03482979 -0.08401438 0.086706154 -0.010051678 0.024598131 -0.085314766 0.10291047 0.06973046 -0.14301431 0.051337704
팬 0.01681587 -0.03746932 -0.0070958147 0.06467595 -0.032596834 -0.03590747 0.010751864 0.026438879 0.033993058 -0.023622097 -0.03818719 -0.06684937 0.031342275 -0.022686023 -0.024418583 0.08334427
차라리 -0.13926831 -0.13398653 -0.117741846 0.14827508 -0.1213694 -0.15583362 0.20273145 0.17370376 -0.1397114 0.22114447 -0.12107851 0.05468477 -0.13219687 0.08228232 0.14578243 0.14206567
절대 -0.096620135 0.0057756035 0.0019132902 0.05470436 0.0009477617 -0.028371733 0.058186762 0.025178067 0.05685998 -0.0011541187 0.02951846 0.005423981 -0.02860357 -0.09864485 -0.019357245 -0.037520744
세상 0.06956681 0.09314084 -0.03415275 -0.032188926 0.005305353 -0.036925204 -0.044300303 -0.044929985 0.09102384 0.030495232 0.017290054 0.010780973 0.069254905 0.022238035 -0.035500024 -0.0142920595
세 0.058724504 -0.08126306 0.032078136 0.036184825 0.026972312 0.02693653 -0.055830136 0.025243543 0.09711495 0.03830503 -0.022962099 0.00018982525 0.06114783 0.087871306 -0.01596873 -0.026589058
못하 -0.022261392 -0.09059057 -0.04177117 0.035525415 -0.06965639 -0.014818766 -0.006527568 0.06830369 -0.06629126 -0.0041193874 0.01770794 0.12645137 -0.06531642 -0.078270786 0.012508693 -0.08326325
의미 0.046287704 -0.016867314 0.01083442 0.05625819 -0.03415764 -0.041023057 -0.023805574 0.024700865 0.064154245 -0.09400477 -0.031837177 -0.06047502 0.07455627 0.051244017 -0.0968975 -0.14014329
던데 -0.049952224 -0.008505096 0.02053278 -0.033351775 -0.018625302 0.088726334 -0.05458652 -0.075260356 -0.054522183 -0.13159718 0.05563604 -0.20968315 0.034161903 0.00765177 -0.044917386 -0.07490679
봄 0.016609116 0.08451987 0.010308702 0.02232178 -0.030350745 0.038897593 -0.08295416 -0.06011059 0.025018547 -0.1038031 -0.00015718718 -0.06726944 0.028429216 -0.033363182 0.027061835 0.03805095
욕 -0.03558362 -0.09416314 -0.107812025 0.07232186 -0.118279 -0.045165498 0.05339393 0.051671766 -0.09025435 0.06822837 -0.0520567 0.10437674 0.0016147551 -0.058831505 0.053211264 -0.0241301
훌륭 0.043163393 0.084428616 0.15464403 -0.12307483 -0.018976172 0.1503538 -0.032945346 -0.058492873 0.035248592 -0.09874656 0.08418338 -0.16968389 0.102709375 0.18538721 -0.10389076 -0.020014549
너무나 0.044015095 0.055843696 0.09789959 0.017540766 0.020290267 -0.0066554006 -0.00023821129 0.0043554967 0.035843316 -0.06892412 -0.06982954 -0.03725014 0.040667843 -0.09958083 0.087416366 0.056618918
강추 0.07375948 0.07701167 0.12209082 -0.15241578 0.043987863 0.11615297 -0.13260594 -0.07063605 0.032824278 -0.07919534 0.04787667 -0.0836135 0.10467657 0.09559151 -0.10594435 -0.07337522
감 -0.008424072 0.010139697 0.008389989 -0.0041392837 -0.041881982 -0.042107753 -0.05176498 0.003102541 0.030215513 -0.027916105 -0.023054633 -0.017370798 -0.03189457 -0.07088292 0.0687139 0.005508133
됨 -0.03874107 0.052787118 0.06835421 -0.09925498 -0.12069759 0.014038606 -0.06692592 -0.022280695 -0.09482197 -0.10819944 0.012320997 -0.15090016 0.06660938 0.02321571 0.0099072745 -0.053143572
ㅡ -0.00841185 -0.06382654 0.0060739093 -0.004366787 -0.025329132 -0.060729224 0.02395868 0.020024356 -0.03740544 0.057918206 -0.019716645 0.020302895 -0.103399076 0.03636141 0.0507992 0.040310092
따뜻 0.043467678 0.11890451 0.07574623 -0.02592898 0.17481004 0.057617966 -0.12544386 -0.043077633 0.11689232 -0.0956474 0.1441947 -0.039923236 0.103867516 0.06701488 -0.17707099 -0.0061780512
빼 -0.051394485 0.002777077 0.003918311 0.031542428 0.050106786 -0.038172666 0.015240515 0.091283605 0.009797564 0.07950716 -0.033946104 0.029552734 -0.03406995 0.023762073 -0.0560488 -0.04553272
느끼 0.07121904 0.0987547 0.017550854 -0.029094609 -0.023038726 0.06344969 -0.045907754 0.036971387 0.11521913 -0.02948394 -0.04283644 -0.048301686 0.08065478 0.018842207 -0.017155457 0.094368346
해야 0.042732235 -0.028637689 0.015424077 -0.0060208747 0.027913028 0.016420871 0.05029057 0.08164707 -0.01663472 0.01948678 0.019546896 -0.04376746 0.012771171 -0.06349848 -0.010983347 -0.04985311
드 -0.052270304 0.022605704 0.043546442 -0.078723654 -0.028501343 0.02324879 -0.04413162 -0.0038499674 -0.06550509 0.01952511 -0.02897353 0.0096431915 0.043305874 -0.09190333 0.017648263 0.015164359
도대체 -0.07849465 -0.09796246 -0.06174145 -0.010016029 -0.06443448 0.0054742247 0.11496565 0.066447094 -0.09541383 0.0084712375 -0.113774836 0.024850154 -0.09083362 0.012918868 0.017132457 -0.037245497
어야 -0.0074698306 -0.054397237 -0.073164746 0.07226218 -0.033927508 -0.086496346 0.11368355 0.05122826 -0.0010834929 0.093370795 -0.06540349 0.0044028643 0.025772823 -0.030707223 -0.039084457 -0.06390257
답답 -0.04025051 -0.058560956 -0.05643955 0.0593399 -0.060479186 -0.06895583 0.120740086 0.072622225 -0.114452794 0.065457754 -0.06405602 -0.000120651835 -0.067841396 0.05735461 0.025273463 0.1650557
마다 0.101476595 -0.011572896 0.06044636 -0.0020154829 0.12452079 -0.012323195 0.023937259 -0.02659316 -0.01288136 -0.02626727 -0.047332004 -0.0015835395 -0.018185768 0.0069653993 -0.035612583 0.01136045
준다 -0.018918565 -0.063175194 -0.0100138895 -0.04129995 -0.0074732946 0.024910314 0.041065775 0.00017009326 -0.011747251 0.088813774 0.01065135 0.018368144 -0.017826224 -0.014003544 0.011476729 0.16339462
글 -0.0015834341 0.030799892 -0.032635137 0.0879193 -0.026133657 -0.016013814 -0.013043871 0.04434499 0.02148929 0.0038744772 0.010074614 0.007860246 -0.057638112 0.023812247 0.05353315 -0.03989509
전쟁 0.011956954 0.089881726 0.034380328 -0.045813724 -0.050194066 -0.07014938 -0.058618147 -0.050330013 0.051138643 -0.036559455 -0.025403729 0.05324643 0.050734628 0.030899813 -0.06741235 0.066856556
놈 -0.03455689 -0.0139807025 -0.0026838237 0.00016171923 0.002287642 0.009471892 0.029047536 -0.049039368 -0.031482805 0.08237205 0.01347261 0.023487845 -0.022323845 0.03734177 0.034091562 -0.0048090466
설정 -0.06161725 -0.03598043 -0.019657057 0.018031592 -0.053197056 -0.035396554 0.099166416 0.10394463 -0.03125088 0.036222864 -0.03874508 -0.06275106 -0.119702205 0.1100654 0.003792024 -0.010581721
무엇 0.049945746 0.0067313095 0.026622333 0.04683518 0.111118115 -0.01769808 0.052610733 -0.015498235 0.035403952 -0.019320793 0.017368933 0.0035979855 0.012778303 0.0006213192 -0.13384102 0.094061956
수작 0.18614665 0.1485088 0.12066452 -0.17685531 0.05791214 0.20536442 -0.1835487 -0.15014242 0.14680335 -0.055278294 0.2008263 -0.103743635 0.109508246 -0.06702275 -0.12312715 -0.061858367
만화 -0.06579617 -0.07666715 0.00892565 0.041514523 0.058680657 -0.0033332398 -0.022063298 0.003911364 -0.058983825 -0.0039787777 -0.01682781 -0.003319082 -0.07139947 0.1059559 0.015510125 -0.14337869
흥미 0.029307062 -0.029266972 0.083014 0.04087018 0.0660456 0.0035928173 0.022981694 -0.014362572 0.06509986 -0.022381967 -0.056631062 -0.09784937 -0.0073904693 0.07339803 -0.04778732 0.06649943
그저 -0.012576604 -0.025439953 0.031116132 0.049359515 -0.030039396 -0.013673007 -0.0079797115 0.034129858 -0.011750272 -0.11838243 -0.05183478 0.06029999 -0.042955942 -0.07432583 0.09352673 -0.063033
감정 0.08491029 0.09254973 0.05054302 -0.01848436 -0.0026856142 0.060332727 -0.029591758 -0.00084498647 0.027186846 -0.044960346 -0.0051425286 -0.09149819 0.058699086 -0.029155066 -0.008342847 -0.08704129
미국 -0.02965003 0.025847854 -0.031686228 -0.066014685 -0.038176894 0.060486276 0.018889459 0.00030804548 -0.0057153758 0.022308143 0.0748822 -0.011404782 0.03147737 -0.011487482 0.0070934123 0.029247437
신선 0.07299904 0.046105307 0.020442383 -0.07349032 0.09592574 0.12967195 -0.032304347 -0.025569059 0.10586905 -0.08344824 0.09065715 -0.016729489 0.0033747 0.040273417 -0.081065826 -0.036874913
행복 0.050578177 0.009010771 0.04487706 -0.12049738 0.08206357 0.03821614 -0.056095604 -0.05796175 0.05823783 -0.047524944 0.12169038 -0.09435773 0.05864788 -0.0024758033 -0.067888364 -0.013512562
뻔 -0.046914626 -0.0560444 -0.04821276 0.0906058 -0.05742196 0.0058905203 0.04966141 -0.003417067 0.022125982 0.011025873 -0.010272864 0.067860626 -0.07115889 0.0042566005 0.0007598857 0.022392252
형 0.02999532 -0.01884427 0.061142158 0.01493527 0.027868321 0.037746124 0.022490744 -0.004368325 0.07955039 0.07638013 0.030299913 -0.0021189307 0.009350653 0.037408274 -0.09579419 0.047275294
앞 0.003840571 0.041710444 0.030684445 0.016719187 0.01158564 0.03998388 0.029934604 0.07425752 -0.04020239 -0.059811868 0.059047896 0.043847498 0.03188722 -0.13355166 0.046786398 -0.03410366
허접 -0.1543571 -0.07762813 -0.115784414 0.15122508 -0.1589528 -0.07763158 0.117907636 0.14898469 -0.12601778 0.09587527 -0.07910744 0.070241384 -0.13254987 0.08249683 0.06845524 -0.010330442
어도 0.041076798 -0.0549468 -0.044021502 -0.059189655 0.015856665 0.036431577 0.0045613414 -0.01152957 -0.0358409 0.090776406 -0.06243947 -0.018687315 0.006950625 -0.07122338 0.004799667 0.06251922
군 0.004685486 0.010447842 0.0018650604 0.023381768 -0.04497449 0.0057804477 0.0079155965 -0.00899267 -0.0080561135 -0.008231536 -0.019512739 0.073884636 0.074269965 -0.009154123 0.10405971 -0.062217075
시절 0.06016954 0.0894357 0.034877244 -0.03171934 0.042072907 0.032192543 -0.0233113 0.04069194 -0.0058642523 0.017841624 0.071739264 -0.042711634 -0.008996437 -0.06930805 0.020377373 -0.0044805296
관객 -0.07295107 -0.11156376 -0.047725257 -0.034644026 -0.03038526 0.008194823 0.052904937 0.07016338 -0.09213874 0.16274206 -0.08595267 -0.042147517 -0.10166327 -0.031595264 0.034390815 0.1609852
배경 0.009101578 -0.0055183214 -0.03476156 0.018299311 0.034601353 -0.008692798 0.015783358 -0.016222404 0.020610947 -0.048088618 0.029699557 0.0016995363 -0.014074809 0.058325883 0.011508399 -0.0897433
6 0.04720058 0.038326494 0.016492963 -0.057330593 0.06575 -0.0007362403 -0.0012973936 -0.020620972 0.0455175 -0.038937025 -0.01811571 0.0566873 -0.006377997 -0.04763248 -0.0162222 -0.05506592
초반 -0.04421969 0.0008841201 -0.09751805 0.047813542 -0.04199979 -0.08992906 -0.02024456 0.06299517 0.042384177 0.09217092 0.02998222 0.052691083 -0.035678893 -0.023393663 0.009601781 -0.03907463
사실 0.10550285 0.025576068 0.034262694 -0.07648779 0.07769191 -0.0026441156 0.00445065 -0.057746608 0.064926006 -0.044924557 0.013387052 -0.071907245 0.049875923 -0.09665043 -0.008763601 0.089014955
웃음 -0.0098701045 0.088967256 0.0047017117 0.019455178 0.07479907 0.015716702 0.016165396 0.0030968268 -0.021346388 -0.056831505 0.008822051 -0.01928732 0.06404551 -0.035127446 0.0052117473 -0.033254668
답 -0.07561158 -0.034929696 -0.0145036755 0.06250983 0.0026809017 -0.0074663237 0.010565215 -0.059212092 0.062222686 -0.04295408 -0.068873964 -0.05660232 0.025352677 0.032902777 -0.008557488 0.012987286
엄청 0.033978496 0.04972668 0.09050529 -0.013436827 -0.034695935 -0.020685745 -0.025767608 -0.01888417 0.012607352 -0.049939267 -0.031099094 -0.05915214 0.0040649185 0.021116437 0.0058273375 0.075865634
더라 -0.017440127 -0.010838044 0.015676366 0.033458382 0.02827336 0.031190028 0.024010625 -0.02003314 -0.0470605 -0.0073086694 0.060008418 -0.07655971 0.010191603 -0.026979204 0.04344778 -0.033613425
라니 0.048193663 0.038816597 0.026834533 -0.007053625 -0.014273923 -0.03499172 -0.0059701176 0.08486686 -0.020151181 -0.04195522 -0.06941245 -0.06550708 0.07949487 -0.043973394 0.07332919 0.10766306
질 0.017287454 -0.013476019 -0.0067969356 0.068113156 -0.09627068 -0.0019759475 0.04479875 -0.030352594 -0.051450316 0.051895984 0.07211028 -0.014626379 -0.06411461 0.0028138666 0.049220704 0.09982434
자신 0.023200741 0.0048189415 0.002920995 0.017584596 -0.02754468 0.027586797 -0.0380965 -0.010891738 0.045203455 0.07787867 0.03408531 -0.044944216 0.023267064 0.07170508 -0.026169661 -0.116023414
추억 0.099283956 0.07037709 0.061246943 -0.020966198 0.06875063 0.0024998495 -0.021765724 -0.048089948 0.06408933 0.04572877 -0.003525096 -0.07307936 0.04847043 0.036598265 -0.10704335 0.08049498
캐스팅 -0.06407 -0.0035518447 -0.012652578 0.0650602 -0.012775637 -0.060937732 0.07743007 0.019260347 -0.073018014 0.12913166 -0.050079275 -0.035347633 -0.026391314 0.04849881 -0.038473606 0.005263891
첨 -0.07632193 0.045522973 -0.10043464 0.0145467585 -0.014024019 -0.045927294 -0.025318123 0.008064277 -0.037612133 0.03394967 -0.090340115 0.027727457 0.019666135 0.019908883 -0.0008823915 -0.016746724
멋있 0.06750487 0.13025388 0.12334796 -0.011947643 0.07638015 0.078480065 -0.06781412 -0.09789145 0.10172712 -0.067973696 0.076825194 -0.060271285 0.1308446 -0.0682684 -0.058205135 -0.06176309
류 -0.042699695 0.012162343 -0.013822463 0.0052608214 -0.094751485 -0.016862419 0.08777923 0.0340142 -0.10039719 0.0083057815 -0.077897005 0.049441192 -0.0389737 0.0829475 0.019349288 -0.13774724
어색 -0.14828064 -0.054853026 -0.056927722 0.12217085 -0.06211832 -0.1645658 0.055402193 0.098449424 -0.1407386 0.04677926 -0.062409893 0.07859035 -0.11429587 0.059353497 0.066849105 -0.0016951084
시나리오 -0.07168368 0.009588813 0.047227696 0.060065113 0.019443708 -0.049473286 -0.009084347 0.020372516 -0.09915108 0.07943178 -0.020132236 0.0020881623 -0.06499653 0.0035255635 0.10355407 0.011428856
머 -0.03251934 -0.04639271 -0.03007036 0.08561472 -0.06942817 0.019266006 0.037372716 0.0661582 -0.05543311 0.05400512 0.035613045 0.010589813 -0.017336326 -0.00019668855 -0.002192372 -0.04603863
밖에 0.07927505 0.0380841 0.031614713 -0.028153637 0.07355305 0.023818824 0.068530686 -0.017366214 0.010736203 0.024904352 0.069498904 -0.043167792 0.0013875812 0.0024630486 -0.0027072786 -0.072577745
OOO -0.08348339 -0.035866622 -0.049625523 0.080624916 -0.07114872 -0.10721895 0.089826904 0.03904733 -0.09143078 0.015390716 -0.036554642 0.026230637 -0.024799459 0.01728853 0.1201528 -0.07973579
슬프 0.073740505 0.11046394 0.092826985 -0.053879365 -0.08285747 0.1154964 -0.081064865 -0.057161324 0.08601851 -0.08803651 0.08020129 -0.10227286 0.07274388 -0.016178971 -0.03833254 -0.08399232
정신 -0.047957826 0.0067212596 -0.05715033 0.08371409 0.04251005 -0.03501218 0.06570996 0.058718093 -0.06676091 -0.022583732 -0.094976485 0.08460843 -0.017404068 0.04713287 -0.024354199 -0.0010033298
분위기 0.019837007 0.04893659 -0.0043121115 -0.061241362 0.021713842 0.03636925 -0.044964228 0.0036842672 0.054249167 0.035480328 0.035981648 0.012268967 -0.027099177 0.0041215755 -0.0018324835 -0.047591083
소름 0.05312908 0.11295665 0.035505448 -0.103864744 0.036010277 0.04259481 -0.06487361 -0.08156566 0.024574913 -0.07291201 0.122552104 -0.03933606 0.076125704 0.020650858 -0.062249243 -0.13540871
멋진 0.10924335 0.012221366 0.09168628 -0.029539209 0.07590937 0.053463183 -0.10000197 -0.11832522 0.011191536 -0.104966275 0.07799198 -0.085544564 0.12461728 -0.046110786 -0.07001162 -0.016916815
힘들 -0.020571388 -0.015959727 -0.06378654 0.059029505 -0.07642222 -0.025251498 0.008250466 0.011522995 0.009041047 0.013088783 -0.040007237 0.10765246 -0.0075712646 -0.0028497397 0.04555697 0.15189698
오늘 0.06607007 -0.003539506 -0.026191458 -0.0045451336 -0.0373025 0.076671615 -0.0065114587 -0.030630477 0.05055801 -0.00051102805 0.048053697 -0.07192085 0.016440436 0.09908757 0.079545975 -0.021761438
어이없 -0.112921044 -0.12229258 -0.08013858 0.1275074 -0.054457184 -0.13569516 0.13743328 0.11849797 -0.068972215 0.14880937 -0.076595806 -0.002913123 -0.07075197 0.11750839 0.10409359 -0.0016448618
봐서 0.041903716 0.06258867 0.0040939976 -0.01609421 0.0042652455 0.047688015 -0.025665272 -0.03800416 0.005311976 0.014936845 0.050910078 -0.019943044 0.009370589 -0.048922915 0.047177806 -0.017315488
잡 0.026172597 0.009696953 0.037878603 0.05140432 -6.7599925e-05 -0.04354412 -0.008595107 0.07223554 0.0041150134 -0.08250243 -0.0006202295 0.11089905 -0.042630166 -0.0660062 0.059348684 0.07846507
구성 0.06694748 0.011836169 -0.0072438214 0.06333518 0.032977585 0.015779069 0.024254927 0.051259775 -0.0027002513 -0.05914594 -0.06500234 -0.005246658 -0.02369728 -0.06058796 0.046984196 -0.05521968
엄마 -0.016229874 0.052079555 -0.014234656 -0.030058432 -0.017719675 0.0035860199 0.00020980247 0.025455171 -0.019715928 0.004936798 0.081027776 -0.063561335 0.06253531 0.02117495 -0.07655916 -0.0573134
함께 0.043588147 0.018415809 0.108347714 0.0053464393 -0.01807531 0.054671723 0.002192122 -0.06333081 0.0021919433 -0.08046021 0.02365547 -0.11523124 0.08830492 -0.100302316 -0.08105379 -0.0525371
문제 0.010584522 -0.06761 -0.10341044 0.055071153 -0.03806237 -0.008608792 0.09467251 0.02696331 -0.04790088 0.033600945 -0.016446715 0.008808877 -0.008460091 -0.048703507 0.029280936 0.10431073
위해 -0.019062573 -0.049010113 -0.009398317 -0.043653484 0.00508782 0.05590852 -0.0068549006 0.047462873 -0.05644567 0.042027578 -0.05893762 0.013099662 -0.010117534 0.13442098 -0.0042581824 0.072787456
졸작 -0.17494473 -0.15452552 -0.14894807 0.1974024 -0.12782237 -0.12084246 0.13532548 0.10053278 -0.12658764 0.17303662 -0.15741798 0.14050022 -0.10948455 0.15196094 0.17263319 0.026698058
잊 0.14906244 0.050035886 0.16134039 -0.03150611 -0.011292462 0.062348135 -0.11553613 -0.0778444 -0.045276668 -0.15109137 0.14411467 -0.06594064 0.08341752 -0.042673156 -0.10349268 -0.018956613
이딴 -0.12760122 -0.12562329 -0.16247283 0.122883275 -0.12255483 -0.11644179 0.06825394 0.19509615 -0.11639519 0.15569031 -0.10283214 0.09585947 -0.087687604 0.07438116 0.13552774 0.017664112
등 0.08445939 0.027482245 0.071833745 -0.041070607 0.121469386 0.065050766 -0.03592492 -0.030787392 0.05654386 -0.0986075 0.0045459857 -0.06528491 -0.00517443 -0.04551667 -0.044188775 0.039158426
집 0.0099671455 -0.010765047 0.062420554 0.020997725 0.0050817574 0.035068486 0.01398681 -0.009424997 -0.016574036 0.031399645 0.0019455906 -0.008912624 -0.039468784 -0.049076065 0.021877626 0.07363707
유쾌 0.14806916 0.0627616 0.08025484 -0.085763894 0.114768416 0.09639347 -0.085821845 -0.11154495 0.046553805 -0.03181852 0.10636505 -0.14449221 0.13847226 0.041718423 -0.10929695 0.011222662
뻔한 -0.052245453 -0.00083174964 -0.07946995 0.027583072 -0.11749272 -0.050466385 0.049630765 0.1030419 -0.024188435 0.042194325 -0.010627285 0.152516 -0.10149809 -0.04662545 0.08087563 0.05409029
킬링 0.013264472 0.03512166 -0.010893096 -0.028420154 -0.0019690185 -0.031694632 0.02221827 -0.018047879 0.014061113 -0.03582412 -0.021243447 0.006375618 0.048970956 -0.045395564 -0.005510108 -0.028302275
스러운 0.07640485 -0.06314821 -0.028878538 -0.029395994 0.08468242 0.06286067 -0.039943025 -0.05501912 -0.019380815 -0.05934922 0.07543843 -0.11257208 -0.016083926 -0.028777722 0.0058527887 -0.16157126
결국 -0.0066829757 -0.017008524 -0.028950514 -0.017290961 0.03657184 -0.076074764 0.0435817 0.010716804 0.05811397 0.006614779 -0.04082599 0.09224108 -0.050887965 -0.0028969871 0.0011589698 -0.056158844
낫 0.045820095 -0.009393463 0.028757744 -0.05478845 -0.038177855 0.038600974 -0.0019310488 0.033083186 -0.047056742 0.017844958 -0.023342123 0.04741374 0.049798843 -0.005874826 0.011740559 -0.06891237
